RandomTree
==========

H_variance < 60.03
|   H_variance < 2.01
|   |   D_variance < 40.69
|   |   |   E_median < 0.5
|   |   |   |   F_variance < 4.75
|   |   |   |   |   B_mean < -2.15 : index (1/0)
|   |   |   |   |   B_mean >= -2.15
|   |   |   |   |   |   B_variance < 2.67 : rest (39/0)
|   |   |   |   |   |   B_variance >= 2.67 : index (1/0)
|   |   |   |   F_variance >= 4.75
|   |   |   |   |   E_variance < 14.63
|   |   |   |   |   |   C_mean < -0.6 : rest (2/0)
|   |   |   |   |   |   C_mean >= -0.6 : pinch_1 (1/0)
|   |   |   |   |   E_variance >= 14.63
|   |   |   |   |   |   G_variance < 14.45 : index (48/0)
|   |   |   |   |   |   G_variance >= 14.45
|   |   |   |   |   |   |   E_mean < -2.1
|   |   |   |   |   |   |   |   B_mean < -1.25 : index (4/0)
|   |   |   |   |   |   |   |   B_mean >= -1.25 : fist (3/0)
|   |   |   |   |   |   |   E_mean >= -2.1 : index (10/0)
|   |   |   E_median >= 0.5
|   |   |   |   B_variance < 0.89 : rest (1/0)
|   |   |   |   B_variance >= 0.89
|   |   |   |   |   D_variance < 27.03 : index (25/0)
|   |   |   |   |   D_variance >= 27.03
|   |   |   |   |   |   H_mean < -1.2 : index (2/0)
|   |   |   |   |   |   H_mean >= -1.2
|   |   |   |   |   |   |   C_variance < 9.74 : pinch_1 (3/0)
|   |   |   |   |   |   |   C_variance >= 9.74 : fist (1/0)
|   |   D_variance >= 40.69
|   |   |   F_variance < 8.5
|   |   |   |   F_median < -0.5
|   |   |   |   |   E_variance < 85.18
|   |   |   |   |   |   D_median < 4
|   |   |   |   |   |   |   F_variance < 4.27 : rest (9/0)
|   |   |   |   |   |   |   F_variance >= 4.27
|   |   |   |   |   |   |   |   A_mean < -1 : pinch_3 (2/0)
|   |   |   |   |   |   |   |   A_mean >= -1 : rest (2/0)
|   |   |   |   |   |   D_median >= 4
|   |   |   |   |   |   |   G_mean < -1.05 : pinch_3 (3/0)
|   |   |   |   |   |   |   G_mean >= -1.05 : rest (2/0)
|   |   |   |   |   E_variance >= 85.18
|   |   |   |   |   |   E_median < -0.5
|   |   |   |   |   |   |   B_variance < 8.75
|   |   |   |   |   |   |   |   E_variance < 210.95 : rest (8/0)
|   |   |   |   |   |   |   |   E_variance >= 210.95
|   |   |   |   |   |   |   |   |   F_variance < 5.29
|   |   |   |   |   |   |   |   |   |   A_variance < 2.09 : pinch_1 (1/0)
|   |   |   |   |   |   |   |   |   |   A_variance >= 2.09 : rest (1/0)
|   |   |   |   |   |   |   |   |   F_variance >= 5.29 : rest (4/0)
|   |   |   |   |   |   |   B_variance >= 8.75 : pinch_1 (1/0)
|   |   |   |   |   |   E_median >= -0.5
|   |   |   |   |   |   |   D_median < 3.5
|   |   |   |   |   |   |   |   A_median < -0.5 : pinch_1 (9/0)
|   |   |   |   |   |   |   |   A_median >= -0.5 : rest (1/0)
|   |   |   |   |   |   |   D_median >= 3.5 : rest (3/0)
|   |   |   |   F_median >= -0.5
|   |   |   |   |   D_variance < 199.03
|   |   |   |   |   |   C_variance < 8.19 : pinch_3 (2/0)
|   |   |   |   |   |   C_variance >= 8.19 : index (1/0)
|   |   |   |   |   D_variance >= 199.03 : rest (5/0)
|   |   |   F_variance >= 8.5
|   |   |   |   H_median < -1.5
|   |   |   |   |   F_median < -1.5
|   |   |   |   |   |   B_mean < -1.8 : rest (2/0)
|   |   |   |   |   |   B_mean >= -1.8
|   |   |   |   |   |   |   B_mean < -1.5 : spread (4/0)
|   |   |   |   |   |   |   B_mean >= -1.5 : pinch_1 (1/0)
|   |   |   |   |   F_median >= -1.5 : pinch_1 (6/0)
|   |   |   |   H_median >= -1.5
|   |   |   |   |   D_mean < -3.3
|   |   |   |   |   |   E_median < -2.5
|   |   |   |   |   |   |   D_variance < 475.12 : pinch_1 (5/0)
|   |   |   |   |   |   |   D_variance >= 475.12
|   |   |   |   |   |   |   |   A_variance < 3.65 : pinch_1 (2/0)
|   |   |   |   |   |   |   |   A_variance >= 3.65 : spread (1/0)
|   |   |   |   |   |   E_median >= -2.5
|   |   |   |   |   |   |   E_median < -0.5
|   |   |   |   |   |   |   |   E_mean < -6.25 : spread (1/0)
|   |   |   |   |   |   |   |   E_mean >= -6.25 : rest (9/0)
|   |   |   |   |   |   |   E_median >= -0.5
|   |   |   |   |   |   |   |   D_median < -7.5 : rest (2/0)
|   |   |   |   |   |   |   |   D_median >= -7.5
|   |   |   |   |   |   |   |   |   D_variance < 106.88 : rest (1/0)
|   |   |   |   |   |   |   |   |   D_variance >= 106.88 : pinch_1 (4/0)
|   |   |   |   |   D_mean >= -3.3
|   |   |   |   |   |   H_variance < 1.94
|   |   |   |   |   |   |   B_median < -0.5 : pinch_1 (48/0)
|   |   |   |   |   |   |   B_median >= -0.5
|   |   |   |   |   |   |   |   D_variance < 765.2 : pinch_1 (7/0)
|   |   |   |   |   |   |   |   D_variance >= 765.2 : rest (1/0)
|   |   |   |   |   |   H_variance >= 1.94 : rest (2/0)
|   H_variance >= 2.01
|   |   E_variance < 183.2
|   |   |   G_variance < 11.91
|   |   |   |   D_variance < 42.25
|   |   |   |   |   D_mean < -1.55
|   |   |   |   |   |   B_mean < -1.2 : rest (2/0)
|   |   |   |   |   |   B_mean >= -1.2
|   |   |   |   |   |   |   A_median < -1.5 : pinch_3 (1/0)
|   |   |   |   |   |   |   A_median >= -1.5 : pinch_1 (2/0)
|   |   |   |   |   D_mean >= -1.55
|   |   |   |   |   |   E_variance < 118.75
|   |   |   |   |   |   |   D_mean < -1.45
|   |   |   |   |   |   |   |   D_variance < 15.85 : index (3/0)
|   |   |   |   |   |   |   |   D_variance >= 15.85 : fist (3/0)
|   |   |   |   |   |   |   D_mean >= -1.45 : index (15/0)
|   |   |   |   |   |   E_variance >= 118.75
|   |   |   |   |   |   |   D_median < -0.5 : index (1/0)
|   |   |   |   |   |   |   D_median >= -0.5
|   |   |   |   |   |   |   |   A_variance < 2.23 : pinch_1 (1/0)
|   |   |   |   |   |   |   |   A_variance >= 2.23 : pinch_3 (1/0)
|   |   |   |   D_variance >= 42.25
|   |   |   |   |   H_variance < 11.23
|   |   |   |   |   |   G_mean < -1.45
|   |   |   |   |   |   |   E_variance < 49.81 : rest (2/0)
|   |   |   |   |   |   |   E_variance >= 49.81
|   |   |   |   |   |   |   |   C_mean < -1.95 : rest (1/0)
|   |   |   |   |   |   |   |   C_mean >= -1.95 : pinch_1 (14/0)
|   |   |   |   |   |   G_mean >= -1.45
|   |   |   |   |   |   |   F_variance < 9.27
|   |   |   |   |   |   |   |   D_mean < -1.15
|   |   |   |   |   |   |   |   |   D_mean < -2.65
|   |   |   |   |   |   |   |   |   |   C_mean < -1.7
|   |   |   |   |   |   |   |   |   |   |   G_variance < 1.4 : pinch_3 (2/0)
|   |   |   |   |   |   |   |   |   |   |   G_variance >= 1.4 : rest (2/0)
|   |   |   |   |   |   |   |   |   |   C_mean >= -1.7 : rest (4/0)
|   |   |   |   |   |   |   |   |   D_mean >= -2.65
|   |   |   |   |   |   |   |   |   |   A_mean < -1.05
|   |   |   |   |   |   |   |   |   |   |   C_mean < -1.9 : pinch_3 (3/0)
|   |   |   |   |   |   |   |   |   |   |   C_mean >= -1.9
|   |   |   |   |   |   |   |   |   |   |   |   C_mean < -1.15 : pinch_1 (2/0)
|   |   |   |   |   |   |   |   |   |   |   |   C_mean >= -1.15 : pinch_3 (1/0)
|   |   |   |   |   |   |   |   |   |   A_mean >= -1.05 : rest (2/0)
|   |   |   |   |   |   |   |   D_mean >= -1.15
|   |   |   |   |   |   |   |   |   D_median < -4.5 : rest (1/0)
|   |   |   |   |   |   |   |   |   D_median >= -4.5 : pinch_3 (13/0)
|   |   |   |   |   |   |   F_variance >= 9.27
|   |   |   |   |   |   |   |   F_median < -2.5
|   |   |   |   |   |   |   |   |   C_mean < -1.45 : spread (1/0)
|   |   |   |   |   |   |   |   |   C_mean >= -1.45 : pinch_3 (1/0)
|   |   |   |   |   |   |   |   F_median >= -2.5
|   |   |   |   |   |   |   |   |   C_variance < 11.33
|   |   |   |   |   |   |   |   |   |   B_variance < 3.11 : pinch_1 (10/0)
|   |   |   |   |   |   |   |   |   |   B_variance >= 3.11
|   |   |   |   |   |   |   |   |   |   |   A_mean < -1.25 : pinch_1 (1/0)
|   |   |   |   |   |   |   |   |   |   |   A_mean >= -1.25
|   |   |   |   |   |   |   |   |   |   |   |   D_mean < 1 : pinch_3 (1/0)
|   |   |   |   |   |   |   |   |   |   |   |   D_mean >= 1 : rest (1/0)
|   |   |   |   |   |   |   |   |   C_variance >= 11.33
|   |   |   |   |   |   |   |   |   |   E_median < -2.5 : rest (7/0)
|   |   |   |   |   |   |   |   |   |   E_median >= -2.5 : pinch_1 (5/0)
|   |   |   |   |   H_variance >= 11.23 : pinch_3 (15/0)
|   |   |   G_variance >= 11.91
|   |   |   |   D_variance < 48.9
|   |   |   |   |   B_variance < 0.82 : index (12/0)
|   |   |   |   |   B_variance >= 0.82
|   |   |   |   |   |   C_variance < 5.59
|   |   |   |   |   |   |   G_mean < -2.25
|   |   |   |   |   |   |   |   A_variance < 1.5 : index (3/0)
|   |   |   |   |   |   |   |   A_variance >= 1.5 : fist (1/0)
|   |   |   |   |   |   |   G_mean >= -2.25 : index (15/0)
|   |   |   |   |   |   C_variance >= 5.59
|   |   |   |   |   |   |   A_median < -0.5
|   |   |   |   |   |   |   |   A_variance < 1.32
|   |   |   |   |   |   |   |   |   B_variance < 3.45 : index (2/0)
|   |   |   |   |   |   |   |   |   B_variance >= 3.45 : fist (1/0)
|   |   |   |   |   |   |   |   A_variance >= 1.32
|   |   |   |   |   |   |   |   |   E_variance < 58.9
|   |   |   |   |   |   |   |   |   |   C_variance < 11.65 : index (2/0)
|   |   |   |   |   |   |   |   |   |   C_variance >= 11.65 : fist (3/0)
|   |   |   |   |   |   |   |   |   E_variance >= 58.9 : fist (33/0)
|   |   |   |   |   |   |   A_median >= -0.5
|   |   |   |   |   |   |   |   F_variance < 256.37
|   |   |   |   |   |   |   |   |   D_median < -1.5 : fist (1/0)
|   |   |   |   |   |   |   |   |   D_median >= -1.5 : index (4/0)
|   |   |   |   |   |   |   |   F_variance >= 256.37 : fist (3/0)
|   |   |   |   D_variance >= 48.9
|   |   |   |   |   C_variance < 11.35
|   |   |   |   |   |   D_mean < -1.65
|   |   |   |   |   |   |   F_mean < -2.25 : pinch_3 (1/0)
|   |   |   |   |   |   |   F_mean >= -2.25
|   |   |   |   |   |   |   |   B_mean < -0.95 : spread (8/0)
|   |   |   |   |   |   |   |   B_mean >= -0.95 : pinch_3 (1/0)
|   |   |   |   |   |   D_mean >= -1.65
|   |   |   |   |   |   |   G_median < 1
|   |   |   |   |   |   |   |   D_mean < -1.35
|   |   |   |   |   |   |   |   |   A_mean < -1.15 : pinch_1 (2/0)
|   |   |   |   |   |   |   |   |   A_mean >= -1.15 : pinch_3 (2/0)
|   |   |   |   |   |   |   |   D_mean >= -1.35
|   |   |   |   |   |   |   |   |   F_variance < 26.51 : pinch_3 (10/0)
|   |   |   |   |   |   |   |   |   F_variance >= 26.51
|   |   |   |   |   |   |   |   |   |   A_variance < 1.2 : index (1/0)
|   |   |   |   |   |   |   |   |   |   A_variance >= 1.2 : pinch_3 (1/0)
|   |   |   |   |   |   |   G_median >= 1 : spread (3/0)
|   |   |   |   |   C_variance >= 11.35
|   |   |   |   |   |   F_variance < 195.19
|   |   |   |   |   |   |   B_median < 0
|   |   |   |   |   |   |   |   D_variance < 136.53 : fist (1/0)
|   |   |   |   |   |   |   |   D_variance >= 136.53 : spread (15/0)
|   |   |   |   |   |   |   B_median >= 0 : pinch_1 (3/0)
|   |   |   |   |   |   F_variance >= 195.19
|   |   |   |   |   |   |   H_variance < 6.39
|   |   |   |   |   |   |   |   C_mean < -2.25 : spread (1/0)
|   |   |   |   |   |   |   |   C_mean >= -2.25 : index (1/0)
|   |   |   |   |   |   |   H_variance >= 6.39
|   |   |   |   |   |   |   |   D_mean < -3.7 : pinch_1 (1/0)
|   |   |   |   |   |   |   |   D_mean >= -3.7
|   |   |   |   |   |   |   |   |   B_median < -1.5 : index (1/0)
|   |   |   |   |   |   |   |   |   B_median >= -1.5 : fist (6/0)
|   |   E_variance >= 183.2
|   |   |   D_variance < 109.25
|   |   |   |   G_median < 1.5
|   |   |   |   |   D_variance < 53.5
|   |   |   |   |   |   C_variance < 9.13
|   |   |   |   |   |   |   F_variance < 21.38
|   |   |   |   |   |   |   |   A_variance < 4.02 : pinch_1 (4/0)
|   |   |   |   |   |   |   |   A_variance >= 4.02 : index (3/0)
|   |   |   |   |   |   |   F_variance >= 21.38
|   |   |   |   |   |   |   |   F_mean < -3.85
|   |   |   |   |   |   |   |   |   C_mean < -1.65 : spread (2/0)
|   |   |   |   |   |   |   |   |   C_mean >= -1.65 : fist (2/0)
|   |   |   |   |   |   |   |   F_mean >= -3.85
|   |   |   |   |   |   |   |   |   F_median < 7.5
|   |   |   |   |   |   |   |   |   |   D_mean < -1.55
|   |   |   |   |   |   |   |   |   |   |   B_mean < -1.05 : index (1/0)
|   |   |   |   |   |   |   |   |   |   |   B_mean >= -1.05 : fist (1/0)
|   |   |   |   |   |   |   |   |   |   D_mean >= -1.55 : index (10/0)
|   |   |   |   |   |   |   |   |   F_median >= 7.5 : fist (1/0)
|   |   |   |   |   |   C_variance >= 9.13
|   |   |   |   |   |   |   H_variance < 2.07 : pinch_1 (1/0)
|   |   |   |   |   |   |   H_variance >= 2.07 : fist (9/0)
|   |   |   |   |   D_variance >= 53.5
|   |   |   |   |   |   G_variance < 51.43
|   |   |   |   |   |   |   B_median < -0.5
|   |   |   |   |   |   |   |   G_mean < -1.9 : pinch_3 (1/0)
|   |   |   |   |   |   |   |   G_mean >= -1.9 : pinch_1 (13/0)
|   |   |   |   |   |   |   B_median >= -0.5
|   |   |   |   |   |   |   |   A_variance < 2.38 : pinch_1 (1/0)
|   |   |   |   |   |   |   |   A_variance >= 2.38 : index (2/0)
|   |   |   |   |   |   G_variance >= 51.43
|   |   |   |   |   |   |   C_variance < 14.83 : spread (3/0)
|   |   |   |   |   |   |   C_variance >= 14.83 : fist (2/0)
|   |   |   |   G_median >= 1.5
|   |   |   |   |   F_mean < 2.25 : spread (7/0)
|   |   |   |   |   F_mean >= 2.25 : fist (3/0)
|   |   |   D_variance >= 109.25
|   |   |   |   H_variance < 4.25
|   |   |   |   |   D_variance < 448.63
|   |   |   |   |   |   E_variance < 1000.3
|   |   |   |   |   |   |   D_mean < 1.95
|   |   |   |   |   |   |   |   H_mean < -0.55
|   |   |   |   |   |   |   |   |   G_variance < 23.1 : pinch_1 (55/0)
|   |   |   |   |   |   |   |   |   G_variance >= 23.1
|   |   |   |   |   |   |   |   |   |   C_median < -0.5 : spread (2/0)
|   |   |   |   |   |   |   |   |   |   C_median >= -0.5 : pinch_1 (4/0)
|   |   |   |   |   |   |   |   H_mean >= -0.55 : spread (2/0)
|   |   |   |   |   |   |   D_mean >= 1.95
|   |   |   |   |   |   |   |   A_variance < 2.44 : pinch_3 (2/0)
|   |   |   |   |   |   |   |   A_variance >= 2.44 : pinch_1 (1/0)
|   |   |   |   |   |   E_variance >= 1000.3 : spread (4/0)
|   |   |   |   |   D_variance >= 448.63
|   |   |   |   |   |   D_median < 9.5
|   |   |   |   |   |   |   E_variance < 389.97
|   |   |   |   |   |   |   |   F_mean < -1.25
|   |   |   |   |   |   |   |   |   G_variance < 12.35 : rest (2/0)
|   |   |   |   |   |   |   |   |   G_variance >= 12.35
|   |   |   |   |   |   |   |   |   |   E_mean < 2.1 : spread (14/0)
|   |   |   |   |   |   |   |   |   |   E_mean >= 2.1 : pinch_1 (1/0)
|   |   |   |   |   |   |   |   F_mean >= -1.25
|   |   |   |   |   |   |   |   |   F_variance < 18.67 : rest (8/0)
|   |   |   |   |   |   |   |   |   F_variance >= 18.67
|   |   |   |   |   |   |   |   |   |   A_variance < 2.67 : spread (3/0)
|   |   |   |   |   |   |   |   |   |   A_variance >= 2.67
|   |   |   |   |   |   |   |   |   |   |   G_median < -0.5
|   |   |   |   |   |   |   |   |   |   |   |   C_median < -1.5 : rest (1/0)
|   |   |   |   |   |   |   |   |   |   |   |   C_median >= -1.5 : pinch_1 (2/0)
|   |   |   |   |   |   |   |   |   |   |   G_median >= -0.5 : pinch_1 (11/0)
|   |   |   |   |   |   |   E_variance >= 389.97
|   |   |   |   |   |   |   |   G_variance < 8.84
|   |   |   |   |   |   |   |   |   E_mean < 4.55 : pinch_1 (48/0)
|   |   |   |   |   |   |   |   |   E_mean >= 4.55 : spread (2/0)
|   |   |   |   |   |   |   |   G_variance >= 8.84
|   |   |   |   |   |   |   |   |   B_variance < 13.36
|   |   |   |   |   |   |   |   |   |   H_mean < -1.65 : pinch_1 (5/0)
|   |   |   |   |   |   |   |   |   |   H_mean >= -1.65
|   |   |   |   |   |   |   |   |   |   |   C_median < -2.5
|   |   |   |   |   |   |   |   |   |   |   |   A_mean < -0.85 : spread (1/0)
|   |   |   |   |   |   |   |   |   |   |   |   A_mean >= -0.85 : pinch_1 (2/0)
|   |   |   |   |   |   |   |   |   |   |   C_median >= -2.5
|   |   |   |   |   |   |   |   |   |   |   |   A_variance < 8.73
|   |   |   |   |   |   |   |   |   |   |   |   |   D_mean < 0.35 : spread (17/0)
|   |   |   |   |   |   |   |   |   |   |   |   |   D_mean >= 0.35
|   |   |   |   |   |   |   |   |   |   |   |   |   |   E_median < -0.5 : pinch_1 (1/0)
|   |   |   |   |   |   |   |   |   |   |   |   |   |   E_median >= -0.5 : spread (3/0)
|   |   |   |   |   |   |   |   |   |   |   |   A_variance >= 8.73 : pinch_1 (2/0)
|   |   |   |   |   |   |   |   |   B_variance >= 13.36 : pinch_1 (4/0)
|   |   |   |   |   |   D_median >= 9.5 : spread (8/0)
|   |   |   |   H_variance >= 4.25
|   |   |   |   |   G_variance < 33.4
|   |   |   |   |   |   G_variance < 13.53
|   |   |   |   |   |   |   E_variance < 230.76
|   |   |   |   |   |   |   |   D_mean < -1.75 : pinch_1 (3/0)
|   |   |   |   |   |   |   |   D_mean >= -1.75 : rest (3/0)
|   |   |   |   |   |   |   E_variance >= 230.76
|   |   |   |   |   |   |   |   F_variance < 95.56
|   |   |   |   |   |   |   |   |   A_variance < 104.02 : pinch_1 (93/0)
|   |   |   |   |   |   |   |   |   A_variance >= 104.02 : spread (1/0)
|   |   |   |   |   |   |   |   F_variance >= 95.56
|   |   |   |   |   |   |   |   |   E_variance < 1718.78 : pinch_1 (13/0)
|   |   |   |   |   |   |   |   |   E_variance >= 1718.78
|   |   |   |   |   |   |   |   |   |   A_median < -0.5 : spread (2/0)
|   |   |   |   |   |   |   |   |   |   A_median >= -0.5 : pinch_1 (1/0)
|   |   |   |   |   |   G_variance >= 13.53
|   |   |   |   |   |   |   G_variance < 31.22
|   |   |   |   |   |   |   |   D_variance < 1138.07
|   |   |   |   |   |   |   |   |   H_variance < 7.11
|   |   |   |   |   |   |   |   |   |   B_mean < -1.95 : pinch_1 (5/0)
|   |   |   |   |   |   |   |   |   |   B_mean >= -1.95
|   |   |   |   |   |   |   |   |   |   |   E_variance < 1675.68
|   |   |   |   |   |   |   |   |   |   |   |   G_mean < -1.35
|   |   |   |   |   |   |   |   |   |   |   |   |   E_median < -7.5 : pinch_1 (1/0)
|   |   |   |   |   |   |   |   |   |   |   |   |   E_median >= -7.5 : spread (4/0)
|   |   |   |   |   |   |   |   |   |   |   |   G_mean >= -1.35 : pinch_1 (6/0)
|   |   |   |   |   |   |   |   |   |   |   E_variance >= 1675.68 : spread (7/0)
|   |   |   |   |   |   |   |   |   H_variance >= 7.11
|   |   |   |   |   |   |   |   |   |   E_variance < 246.21 : spread (1/0)
|   |   |   |   |   |   |   |   |   |   E_variance >= 246.21
|   |   |   |   |   |   |   |   |   |   |   F_variance < 15.94
|   |   |   |   |   |   |   |   |   |   |   |   H_median < -0.5 : spread (1/0)
|   |   |   |   |   |   |   |   |   |   |   |   H_median >= -0.5 : pinch_1 (2/0)
|   |   |   |   |   |   |   |   |   |   |   F_variance >= 15.94
|   |   |   |   |   |   |   |   |   |   |   |   C_variance < 52.35 : pinch_1 (40/0)
|   |   |   |   |   |   |   |   |   |   |   |   C_variance >= 52.35
|   |   |   |   |   |   |   |   |   |   |   |   |   C_median < 0 : spread (1/0)
|   |   |   |   |   |   |   |   |   |   |   |   |   C_median >= 0 : pinch_1 (1/0)
|   |   |   |   |   |   |   |   D_variance >= 1138.07
|   |   |   |   |   |   |   |   |   A_median < 3 : spread (23/0)
|   |   |   |   |   |   |   |   |   A_median >= 3 : pinch_1 (2/0)
|   |   |   |   |   |   |   G_variance >= 31.22 : pinch_1 (14/0)
|   |   |   |   |   G_variance >= 33.4
|   |   |   |   |   |   D_variance < 191.03
|   |   |   |   |   |   |   H_variance < 15.25
|   |   |   |   |   |   |   |   A_median < -1.5 : spread (1/0)
|   |   |   |   |   |   |   |   A_median >= -1.5
|   |   |   |   |   |   |   |   |   C_variance < 8.52 : spread (1/0)
|   |   |   |   |   |   |   |   |   C_variance >= 8.52 : pinch_1 (9/0)
|   |   |   |   |   |   |   H_variance >= 15.25
|   |   |   |   |   |   |   |   A_median < -2.5 : fist (1/0)
|   |   |   |   |   |   |   |   A_median >= -2.5
|   |   |   |   |   |   |   |   |   B_variance < 6.97 : spread (4/0)
|   |   |   |   |   |   |   |   |   B_variance >= 6.97 : pinch_1 (1/0)
|   |   |   |   |   |   D_variance >= 191.03
|   |   |   |   |   |   |   G_variance < 124.01
|   |   |   |   |   |   |   |   G_variance < 63.39
|   |   |   |   |   |   |   |   |   E_median < 15.5
|   |   |   |   |   |   |   |   |   |   H_variance < 16.02
|   |   |   |   |   |   |   |   |   |   |   E_mean < -0.5 : spread (36/0)
|   |   |   |   |   |   |   |   |   |   |   E_mean >= -0.5
|   |   |   |   |   |   |   |   |   |   |   |   E_variance < 271.96 : pinch_1 (1/0)
|   |   |   |   |   |   |   |   |   |   |   |   E_variance >= 271.96
|   |   |   |   |   |   |   |   |   |   |   |   |   E_mean < -0.2 : pinch_1 (1/0)
|   |   |   |   |   |   |   |   |   |   |   |   |   E_mean >= -0.2 : spread (15/0)
|   |   |   |   |   |   |   |   |   |   H_variance >= 16.02
|   |   |   |   |   |   |   |   |   |   |   C_median < -2.5 : pinch_1 (2/0)
|   |   |   |   |   |   |   |   |   |   |   C_median >= -2.5
|   |   |   |   |   |   |   |   |   |   |   |   D_mean < 0.35
|   |   |   |   |   |   |   |   |   |   |   |   |   A_variance < 76.54
|   |   |   |   |   |   |   |   |   |   |   |   |   |   B_median < 0.5 : spread (13/0)
|   |   |   |   |   |   |   |   |   |   |   |   |   |   B_median >= 0.5 : pinch_1 (1/0)
|   |   |   |   |   |   |   |   |   |   |   |   |   A_variance >= 76.54 : pinch_1 (1/0)
|   |   |   |   |   |   |   |   |   |   |   |   D_mean >= 0.35 : pinch_1 (1/0)
|   |   |   |   |   |   |   |   |   E_median >= 15.5 : pinch_1 (2/0)
|   |   |   |   |   |   |   |   G_variance >= 63.39
|   |   |   |   |   |   |   |   |   D_mean < -6.65 : spread (6/0)
|   |   |   |   |   |   |   |   |   D_mean >= -6.65
|   |   |   |   |   |   |   |   |   |   F_variance < 14.05 : pinch_1 (5/0)
|   |   |   |   |   |   |   |   |   |   F_variance >= 14.05
|   |   |   |   |   |   |   |   |   |   |   G_variance < 104.42
|   |   |   |   |   |   |   |   |   |   |   |   E_variance < 414.54
|   |   |   |   |   |   |   |   |   |   |   |   |   H_mean < -1.1 : pinch_1 (9/0)
|   |   |   |   |   |   |   |   |   |   |   |   |   H_mean >= -1.1 : spread (2/0)
|   |   |   |   |   |   |   |   |   |   |   |   E_variance >= 414.54
|   |   |   |   |   |   |   |   |   |   |   |   |   B_variance < 14.35
|   |   |   |   |   |   |   |   |   |   |   |   |   |   E_median < 3
|   |   |   |   |   |   |   |   |   |   |   |   |   |   |   E_variance < 2677.65
|   |   |   |   |   |   |   |   |   |   |   |   |   |   |   |   A_mean < -3.6 : pinch_1 (1/0)
|   |   |   |   |   |   |   |   |   |   |   |   |   |   |   |   A_mean >= -3.6
|   |   |   |   |   |   |   |   |   |   |   |   |   |   |   |   |   B_mean < -2.1
|   |   |   |   |   |   |   |   |   |   |   |   |   |   |   |   |   |   C_mean < -2.65 : pinch_1 (1/0)
|   |   |   |   |   |   |   |   |   |   |   |   |   |   |   |   |   |   C_mean >= -2.65 : spread (1/0)
|   |   |   |   |   |   |   |   |   |   |   |   |   |   |   |   |   B_mean >= -2.1 : spread (12/0)
|   |   |   |   |   |   |   |   |   |   |   |   |   |   |   E_variance >= 2677.65 : pinch_1 (1/0)
|   |   |   |   |   |   |   |   |   |   |   |   |   |   E_median >= 3 : spread (14/0)
|   |   |   |   |   |   |   |   |   |   |   |   |   B_variance >= 14.35
|   |   |   |   |   |   |   |   |   |   |   |   |   |   E_mean < 1.55
|   |   |   |   |   |   |   |   |   |   |   |   |   |   |   F_median < -1.5
|   |   |   |   |   |   |   |   |   |   |   |   |   |   |   |   F_median < -4 : pinch_1 (3/0)
|   |   |   |   |   |   |   |   |   |   |   |   |   |   |   |   F_median >= -4 : spread (1/0)
|   |   |   |   |   |   |   |   |   |   |   |   |   |   |   F_median >= -1.5 : pinch_1 (5/0)
|   |   |   |   |   |   |   |   |   |   |   |   |   |   E_mean >= 1.55 : spread (3/0)
|   |   |   |   |   |   |   |   |   |   |   G_variance >= 104.42
|   |   |   |   |   |   |   |   |   |   |   |   F_median < 1.5
|   |   |   |   |   |   |   |   |   |   |   |   |   F_variance < 77.24 : spread (1/0)
|   |   |   |   |   |   |   |   |   |   |   |   |   F_variance >= 77.24 : pinch_1 (13/0)
|   |   |   |   |   |   |   |   |   |   |   |   F_median >= 1.5 : spread (3/0)
|   |   |   |   |   |   |   G_variance >= 124.01
|   |   |   |   |   |   |   |   D_median < 5.5
|   |   |   |   |   |   |   |   |   B_variance < 12.13
|   |   |   |   |   |   |   |   |   |   B_mean < -0.85 : spread (76/0)
|   |   |   |   |   |   |   |   |   |   B_mean >= -0.85
|   |   |   |   |   |   |   |   |   |   |   A_mean < -1.1
|   |   |   |   |   |   |   |   |   |   |   |   C_variance < 53.01 : spread (1/0)
|   |   |   |   |   |   |   |   |   |   |   |   C_variance >= 53.01 : fist (1/0)
|   |   |   |   |   |   |   |   |   |   |   A_mean >= -1.1 : spread (11/0)
|   |   |   |   |   |   |   |   |   B_variance >= 12.13
|   |   |   |   |   |   |   |   |   |   G_variance < 299.92
|   |   |   |   |   |   |   |   |   |   |   C_variance < 61.35
|   |   |   |   |   |   |   |   |   |   |   |   B_median < -2.5 : spread (1/0)
|   |   |   |   |   |   |   |   |   |   |   |   B_median >= -2.5
|   |   |   |   |   |   |   |   |   |   |   |   |   G_variance < 145.33 : spread (1/0)
|   |   |   |   |   |   |   |   |   |   |   |   |   G_variance >= 145.33 : pinch_1 (6/0)
|   |   |   |   |   |   |   |   |   |   |   C_variance >= 61.35
|   |   |   |   |   |   |   |   |   |   |   |   H_variance < 8.27 : pinch_1 (1/0)
|   |   |   |   |   |   |   |   |   |   |   |   H_variance >= 8.27 : spread (15/0)
|   |   |   |   |   |   |   |   |   |   G_variance >= 299.92 : spread (14/0)
|   |   |   |   |   |   |   |   D_median >= 5.5
|   |   |   |   |   |   |   |   |   E_median < 11
|   |   |   |   |   |   |   |   |   |   C_median < -2.5 : pinch_1 (3/0)
|   |   |   |   |   |   |   |   |   |   C_median >= -2.5
|   |   |   |   |   |   |   |   |   |   |   C_variance < 40.66
|   |   |   |   |   |   |   |   |   |   |   |   F_median < -1.5
|   |   |   |   |   |   |   |   |   |   |   |   |   H_mean < -1.4 : spread (8/0)
|   |   |   |   |   |   |   |   |   |   |   |   |   H_mean >= -1.4
|   |   |   |   |   |   |   |   |   |   |   |   |   |   A_variance < 2.85 : pinch_1 (1/0)
|   |   |   |   |   |   |   |   |   |   |   |   |   |   A_variance >= 2.85 : spread (1/0)
|   |   |   |   |   |   |   |   |   |   |   |   F_median >= -1.5
|   |   |   |   |   |   |   |   |   |   |   |   |   B_mean < -1.45 : pinch_1 (7/0)
|   |   |   |   |   |   |   |   |   |   |   |   |   B_mean >= -1.45
|   |   |   |   |   |   |   |   |   |   |   |   |   |   B_mean < -0.55 : spread (3/0)
|   |   |   |   |   |   |   |   |   |   |   |   |   |   B_mean >= -0.55 : pinch_1 (1/0)
|   |   |   |   |   |   |   |   |   |   |   C_variance >= 40.66 : spread (11/0)
|   |   |   |   |   |   |   |   |   E_median >= 11 : spread (12/0)
H_variance >= 60.03
|   C_variance < 10.75
|   |   E_variance < 415.77
|   |   |   F_median < -2.5
|   |   |   |   A_variance < 7.43 : pinch_3 (1/0)
|   |   |   |   A_variance >= 7.43 : fist (5/0)
|   |   |   F_median >= -2.5
|   |   |   |   F_variance < 171.02
|   |   |   |   |   F_variance < 6.35
|   |   |   |   |   |   D_median < -4.5 : pinch_3 (6/0)
|   |   |   |   |   |   D_median >= -4.5
|   |   |   |   |   |   |   A_variance < 13.45
|   |   |   |   |   |   |   |   G_variance < 5.17
|   |   |   |   |   |   |   |   |   D_variance < 154.24 : index (1/0)
|   |   |   |   |   |   |   |   |   D_variance >= 154.24 : pinch_3 (3/0)
|   |   |   |   |   |   |   |   G_variance >= 5.17 : index (23/0)
|   |   |   |   |   |   |   A_variance >= 13.45 : pinch_3 (2/0)
|   |   |   |   |   F_variance >= 6.35
|   |   |   |   |   |   D_mean < -1.2
|   |   |   |   |   |   |   G_mean < -1.55
|   |   |   |   |   |   |   |   E_mean < -0.6 : pinch_3 (6/0)
|   |   |   |   |   |   |   |   E_mean >= -0.6 : index (2/0)
|   |   |   |   |   |   |   G_mean >= -1.55 : pinch_3 (27/0)
|   |   |   |   |   |   D_mean >= -1.2
|   |   |   |   |   |   |   E_variance < 208.58
|   |   |   |   |   |   |   |   B_variance < 1.13 : index (6/0)
|   |   |   |   |   |   |   |   B_variance >= 1.13
|   |   |   |   |   |   |   |   |   D_variance < 192.04
|   |   |   |   |   |   |   |   |   |   C_median < 0.5
|   |   |   |   |   |   |   |   |   |   |   D_median < -1.5 : index (2/0)
|   |   |   |   |   |   |   |   |   |   |   D_median >= -1.5
|   |   |   |   |   |   |   |   |   |   |   |   G_median < 2 : pinch_3 (22/0)
|   |   |   |   |   |   |   |   |   |   |   |   G_median >= 2 : index (1/0)
|   |   |   |   |   |   |   |   |   |   C_median >= 0.5 : index (2/0)
|   |   |   |   |   |   |   |   |   D_variance >= 192.04 : index (7/0)
|   |   |   |   |   |   |   E_variance >= 208.58 : pinch_3 (12/0)
|   |   |   |   F_variance >= 171.02 : fist (9/0)
|   |   E_variance >= 415.77
|   |   |   G_median < 1 : spread (4/0)
|   |   |   G_median >= 1 : fist (4/0)
|   C_variance >= 10.75
|   |   F_variance < 160.73
|   |   |   G_variance < 41.83
|   |   |   |   E_median < -3.5
|   |   |   |   |   B_mean < -1.55 : pinch_3 (1/0)
|   |   |   |   |   B_mean >= -1.55 : pinch_1 (6/0)
|   |   |   |   E_median >= -3.5
|   |   |   |   |   D_mean < -1.8
|   |   |   |   |   |   E_mean < -1.5 : index (6/0)
|   |   |   |   |   |   E_mean >= -1.5 : pinch_3 (1/0)
|   |   |   |   |   D_mean >= -1.8
|   |   |   |   |   |   D_median < 2.5 : pinch_3 (7/0)
|   |   |   |   |   |   D_median >= 2.5
|   |   |   |   |   |   |   C_mean < -1.05 : pinch_3 (1/0)
|   |   |   |   |   |   |   C_mean >= -1.05 : index (1/0)
|   |   |   G_variance >= 41.83
|   |   |   |   B_variance < 3.5
|   |   |   |   |   B_mean < -1.65 : index (1/0)
|   |   |   |   |   B_mean >= -1.65 : pinch_3 (1/0)
|   |   |   |   B_variance >= 3.5
|   |   |   |   |   A_variance < 114.35
|   |   |   |   |   |   A_variance < 6.65
|   |   |   |   |   |   |   D_mean < 2.45 : pinch_1 (1/0)
|   |   |   |   |   |   |   D_mean >= 2.45 : spread (1/0)
|   |   |   |   |   |   A_variance >= 6.65 : spread (10/0)
|   |   |   |   |   A_variance >= 114.35
|   |   |   |   |   |   B_variance < 30.27 : pinch_3 (1/0)
|   |   |   |   |   |   B_variance >= 30.27 : pinch_1 (2/0)
|   |   F_variance >= 160.73
|   |   |   G_median < 17.5
|   |   |   |   D_mean < 2.8
|   |   |   |   |   F_variance < 223.03
|   |   |   |   |   |   A_variance < 24.82 : fist (2/0)
|   |   |   |   |   |   A_variance >= 24.82 : spread (1/0)
|   |   |   |   |   F_variance >= 223.03 : fist (92/0)
|   |   |   |   D_mean >= 2.8
|   |   |   |   |   D_mean < 3.65 : spread (7/0)
|   |   |   |   |   D_mean >= 3.65
|   |   |   |   |   |   E_mean < -3.55 : spread (1/0)
|   |   |   |   |   |   E_mean >= -3.55 : fist (3/0)
|   |   |   G_median >= 17.5 : spread (5/0)

Size of the tree : 525


RandomTree
==========

G_variance < 22.77
|   D_variance < 42.37
|   |   E_variance < 16.36
|   |   |   A_mean < -1.45
|   |   |   |   E_variance < 11.85 : rest (4/0)
|   |   |   |   E_variance >= 11.85 : index (2/0)
|   |   |   A_mean >= -1.45 : rest (49/0)
|   |   E_variance >= 16.36
|   |   |   F_variance < 40.45
|   |   |   |   B_variance < 3.53
|   |   |   |   |   D_variance < 20.05
|   |   |   |   |   |   D_median < 0.5
|   |   |   |   |   |   |   C_variance < 2.26
|   |   |   |   |   |   |   |   F_mean < -1.1 : index (9/0)
|   |   |   |   |   |   |   |   F_mean >= -1.1 : rest (2/0)
|   |   |   |   |   |   |   C_variance >= 2.26 : index (42/0)
|   |   |   |   |   |   D_median >= 0.5 : pinch_3 (1/0)
|   |   |   |   |   D_variance >= 20.05
|   |   |   |   |   |   A_mean < -1.85 : pinch_3 (1/0)
|   |   |   |   |   |   A_mean >= -1.85
|   |   |   |   |   |   |   C_variance < 6.82
|   |   |   |   |   |   |   |   C_mean < -1.35
|   |   |   |   |   |   |   |   |   B_mean < -1.15 : index (6/0)
|   |   |   |   |   |   |   |   |   B_mean >= -1.15
|   |   |   |   |   |   |   |   |   |   B_variance < 2.19 : index (2/0)
|   |   |   |   |   |   |   |   |   |   B_variance >= 2.19 : pinch_1 (1/0)
|   |   |   |   |   |   |   |   C_mean >= -1.35
|   |   |   |   |   |   |   |   |   B_variance < 1.41 : index (1/0)
|   |   |   |   |   |   |   |   |   B_variance >= 1.41 : pinch_3 (4/0)
|   |   |   |   |   |   |   C_variance >= 6.82 : index (12/0)
|   |   |   |   B_variance >= 3.53
|   |   |   |   |   F_median < -0.5 : pinch_1 (3/0)
|   |   |   |   |   F_median >= -0.5 : pinch_3 (3/0)
|   |   |   F_variance >= 40.45
|   |   |   |   D_variance < 15.43
|   |   |   |   |   E_mean < -4.6 : fist (2/0)
|   |   |   |   |   E_mean >= -4.6 : index (35/0)
|   |   |   |   D_variance >= 15.43
|   |   |   |   |   H_mean < -1.05
|   |   |   |   |   |   D_mean < -2.4 : fist (5/0)
|   |   |   |   |   |   D_mean >= -2.4
|   |   |   |   |   |   |   H_variance < 2.73 : index (18/0)
|   |   |   |   |   |   |   H_variance >= 2.73
|   |   |   |   |   |   |   |   E_variance < 263.15 : fist (8/0)
|   |   |   |   |   |   |   |   E_variance >= 263.15 : index (1/0)
|   |   |   |   |   H_mean >= -1.05
|   |   |   |   |   |   D_mean < -0.3 : fist (5/0)
|   |   |   |   |   |   D_mean >= -0.3 : pinch_1 (1/0)
|   D_variance >= 42.37
|   |   H_median < 1.5
|   |   |   H_variance < 48.71
|   |   |   |   F_variance < 23
|   |   |   |   |   F_variance < 10.86
|   |   |   |   |   |   H_variance < 3.71
|   |   |   |   |   |   |   F_variance < 4.09
|   |   |   |   |   |   |   |   A_variance < 2.07
|   |   |   |   |   |   |   |   |   A_mean < -1.4
|   |   |   |   |   |   |   |   |   |   D_median < -2.5 : pinch_1 (2/0)
|   |   |   |   |   |   |   |   |   |   D_median >= -2.5 : rest (1/0)
|   |   |   |   |   |   |   |   |   A_mean >= -1.4
|   |   |   |   |   |   |   |   |   |   D_mean < -1.4 : rest (8/0)
|   |   |   |   |   |   |   |   |   |   D_mean >= -1.4
|   |   |   |   |   |   |   |   |   |   |   C_mean < -0.9 : index (1/0)
|   |   |   |   |   |   |   |   |   |   |   C_mean >= -0.9 : rest (2/0)
|   |   |   |   |   |   |   |   A_variance >= 2.07 : pinch_1 (6/0)
|   |   |   |   |   |   |   F_variance >= 4.09
|   |   |   |   |   |   |   |   B_variance < 4.55
|   |   |   |   |   |   |   |   |   D_median < -6.5 : rest (10/0)
|   |   |   |   |   |   |   |   |   D_median >= -6.5
|   |   |   |   |   |   |   |   |   |   F_variance < 5.89
|   |   |   |   |   |   |   |   |   |   |   C_variance < 8.45
|   |   |   |   |   |   |   |   |   |   |   |   B_median < -1.5 : pinch_3 (6/0)
|   |   |   |   |   |   |   |   |   |   |   |   B_median >= -1.5
|   |   |   |   |   |   |   |   |   |   |   |   |   G_variance < 2.02 : rest (3/0)
|   |   |   |   |   |   |   |   |   |   |   |   |   G_variance >= 2.02
|   |   |   |   |   |   |   |   |   |   |   |   |   |   D_mean < -3.1 : pinch_3 (3/0)
|   |   |   |   |   |   |   |   |   |   |   |   |   |   D_mean >= -3.1 : rest (1/0)
|   |   |   |   |   |   |   |   |   |   |   C_variance >= 8.45
|   |   |   |   |   |   |   |   |   |   |   |   C_variance < 9.73 : pinch_1 (4/0)
|   |   |   |   |   |   |   |   |   |   |   |   C_variance >= 9.73 : rest (4/0)
|   |   |   |   |   |   |   |   |   |   F_variance >= 5.89
|   |   |   |   |   |   |   |   |   |   |   D_mean < -3.35
|   |   |   |   |   |   |   |   |   |   |   |   A_mean < -1.6 : pinch_3 (1/0)
|   |   |   |   |   |   |   |   |   |   |   |   A_mean >= -1.6 : rest (13/0)
|   |   |   |   |   |   |   |   |   |   |   D_mean >= -3.35
|   |   |   |   |   |   |   |   |   |   |   |   D_mean < -1.2
|   |   |   |   |   |   |   |   |   |   |   |   |   B_variance < 2.67
|   |   |   |   |   |   |   |   |   |   |   |   |   |   E_variance < 176.69 : rest (2/0)
|   |   |   |   |   |   |   |   |   |   |   |   |   |   E_variance >= 176.69 : pinch_1 (1/0)
|   |   |   |   |   |   |   |   |   |   |   |   |   B_variance >= 2.67
|   |   |   |   |   |   |   |   |   |   |   |   |   |   E_variance < 123.55 : pinch_3 (3/0)
|   |   |   |   |   |   |   |   |   |   |   |   |   |   E_variance >= 123.55 : pinch_1 (5/0)
|   |   |   |   |   |   |   |   |   |   |   |   D_mean >= -1.2
|   |   |   |   |   |   |   |   |   |   |   |   |   G_variance < 4.59
|   |   |   |   |   |   |   |   |   |   |   |   |   |   E_mean < -2.15 : pinch_3 (1/0)
|   |   |   |   |   |   |   |   |   |   |   |   |   |   E_mean >= -2.15
|   |   |   |   |   |   |   |   |   |   |   |   |   |   |   D_variance < 82.52
|   |   |   |   |   |   |   |   |   |   |   |   |   |   |   |   A_variance < 1.45 : pinch_3 (1/0)
|   |   |   |   |   |   |   |   |   |   |   |   |   |   |   |   A_variance >= 1.45 : rest (2/0)
|   |   |   |   |   |   |   |   |   |   |   |   |   |   |   D_variance >= 82.52 : rest (20/0)
|   |   |   |   |   |   |   |   |   |   |   |   |   G_variance >= 4.59
|   |   |   |   |   |   |   |   |   |   |   |   |   |   A_variance < 0.91 : rest (2/0)
|   |   |   |   |   |   |   |   |   |   |   |   |   |   A_variance >= 0.91 : pinch_1 (3/0)
|   |   |   |   |   |   |   |   B_variance >= 4.55
|   |   |   |   |   |   |   |   |   A_variance < 1.9
|   |   |   |   |   |   |   |   |   |   D_mean < -0.65 : pinch_1 (1/0)
|   |   |   |   |   |   |   |   |   |   D_mean >= -0.65 : rest (2/0)
|   |   |   |   |   |   |   |   |   A_variance >= 1.9 : pinch_1 (7/0)
|   |   |   |   |   |   H_variance >= 3.71
|   |   |   |   |   |   |   B_mean < -0.75
|   |   |   |   |   |   |   |   C_variance < 11.43
|   |   |   |   |   |   |   |   |   H_variance < 5.63
|   |   |   |   |   |   |   |   |   |   D_variance < 55.33 : index (1/0)
|   |   |   |   |   |   |   |   |   |   D_variance >= 55.33
|   |   |   |   |   |   |   |   |   |   |   C_variance < 7.15 : pinch_3 (3/0)
|   |   |   |   |   |   |   |   |   |   |   C_variance >= 7.15 : pinch_1 (2/0)
|   |   |   |   |   |   |   |   |   H_variance >= 5.63 : pinch_3 (16/0)
|   |   |   |   |   |   |   |   C_variance >= 11.43
|   |   |   |   |   |   |   |   |   E_variance < 153.32 : pinch_3 (2/0)
|   |   |   |   |   |   |   |   |   E_variance >= 153.32 : pinch_1 (9/0)
|   |   |   |   |   |   |   B_mean >= -0.75 : pinch_1 (6/0)
|   |   |   |   |   F_variance >= 10.86
|   |   |   |   |   |   H_variance < 4
|   |   |   |   |   |   |   D_median < 12
|   |   |   |   |   |   |   |   G_mean < -0.95
|   |   |   |   |   |   |   |   |   G_mean < -2.45 : pinch_3 (2/0)
|   |   |   |   |   |   |   |   |   G_mean >= -2.45
|   |   |   |   |   |   |   |   |   |   B_mean < -1.95
|   |   |   |   |   |   |   |   |   |   |   C_mean < -1.75 : rest (3/0)
|   |   |   |   |   |   |   |   |   |   |   C_mean >= -1.75 : pinch_1 (1/0)
|   |   |   |   |   |   |   |   |   |   B_mean >= -1.95
|   |   |   |   |   |   |   |   |   |   |   D_variance < 295.2 : pinch_1 (45/0)
|   |   |   |   |   |   |   |   |   |   |   D_variance >= 295.2
|   |   |   |   |   |   |   |   |   |   |   |   F_mean < -0.85 : pinch_1 (13/0)
|   |   |   |   |   |   |   |   |   |   |   |   F_mean >= -0.85
|   |   |   |   |   |   |   |   |   |   |   |   |   E_median < -0.5 : rest (5/0)
|   |   |   |   |   |   |   |   |   |   |   |   |   E_median >= -0.5 : pinch_1 (5/0)
|   |   |   |   |   |   |   |   G_mean >= -0.95
|   |   |   |   |   |   |   |   |   C_median < -0.5
|   |   |   |   |   |   |   |   |   |   G_variance < 2.51 : pinch_1 (2/0)
|   |   |   |   |   |   |   |   |   |   G_variance >= 2.51
|   |   |   |   |   |   |   |   |   |   |   D_variance < 168.89 : pinch_1 (1/0)
|   |   |   |   |   |   |   |   |   |   |   D_variance >= 168.89 : rest (11/0)
|   |   |   |   |   |   |   |   |   C_median >= -0.5 : pinch_1 (4/0)
|   |   |   |   |   |   |   D_median >= 12 : spread (3/0)
|   |   |   |   |   |   H_variance >= 4
|   |   |   |   |   |   |   A_variance < 2.93
|   |   |   |   |   |   |   |   C_variance < 11.31 : pinch_3 (10/0)
|   |   |   |   |   |   |   |   C_variance >= 11.31
|   |   |   |   |   |   |   |   |   A_variance < 2.29
|   |   |   |   |   |   |   |   |   |   E_variance < 303.29 : rest (6/0)
|   |   |   |   |   |   |   |   |   |   E_variance >= 303.29 : pinch_1 (2/0)
|   |   |   |   |   |   |   |   |   A_variance >= 2.29 : pinch_3 (2/0)
|   |   |   |   |   |   |   A_variance >= 2.93
|   |   |   |   |   |   |   |   D_variance < 224.56
|   |   |   |   |   |   |   |   |   D_median < -2.5 : pinch_1 (4/0)
|   |   |   |   |   |   |   |   |   D_median >= -2.5
|   |   |   |   |   |   |   |   |   |   A_mean < -0.95 : pinch_3 (3/0)
|   |   |   |   |   |   |   |   |   |   A_mean >= -0.95 : pinch_1 (1/0)
|   |   |   |   |   |   |   |   D_variance >= 224.56
|   |   |   |   |   |   |   |   |   E_median < -2
|   |   |   |   |   |   |   |   |   |   B_variance < 9.12 : spread (2/0)
|   |   |   |   |   |   |   |   |   |   B_variance >= 9.12 : pinch_1 (5/0)
|   |   |   |   |   |   |   |   |   E_median >= -2
|   |   |   |   |   |   |   |   |   |   B_median < -1.5 : rest (1/0)
|   |   |   |   |   |   |   |   |   |   B_median >= -1.5 : pinch_1 (11/0)
|   |   |   |   F_variance >= 23
|   |   |   |   |   F_median < -0.5
|   |   |   |   |   |   E_variance < 1112.72
|   |   |   |   |   |   |   H_mean < -1.45
|   |   |   |   |   |   |   |   D_variance < 334.73
|   |   |   |   |   |   |   |   |   H_mean < -1.55 : pinch_1 (21/0)
|   |   |   |   |   |   |   |   |   H_mean >= -1.55
|   |   |   |   |   |   |   |   |   |   B_median < -1.5
|   |   |   |   |   |   |   |   |   |   |   B_variance < 3.51 : rest (2/0)
|   |   |   |   |   |   |   |   |   |   |   B_variance >= 3.51 : spread (1/0)
|   |   |   |   |   |   |   |   |   |   B_median >= -1.5 : pinch_1 (2/0)
|   |   |   |   |   |   |   |   D_variance >= 334.73
|   |   |   |   |   |   |   |   |   F_mean < -1.65
|   |   |   |   |   |   |   |   |   |   C_mean < -2.7 : spread (4/0)
|   |   |   |   |   |   |   |   |   |   C_mean >= -2.7
|   |   |   |   |   |   |   |   |   |   |   C_variance < 44.33 : pinch_1 (12/0)
|   |   |   |   |   |   |   |   |   |   |   C_variance >= 44.33 : spread (1/0)
|   |   |   |   |   |   |   |   |   F_mean >= -1.65
|   |   |   |   |   |   |   |   |   |   H_variance < 4.14
|   |   |   |   |   |   |   |   |   |   |   A_median < -1.5 : pinch_1 (2/0)
|   |   |   |   |   |   |   |   |   |   |   A_median >= -1.5 : rest (2/0)
|   |   |   |   |   |   |   |   |   |   H_variance >= 4.14 : spread (8/0)
|   |   |   |   |   |   |   H_mean >= -1.45
|   |   |   |   |   |   |   |   D_mean < 0.15
|   |   |   |   |   |   |   |   |   D_variance < 125.19
|   |   |   |   |   |   |   |   |   |   H_variance < 2.86 : pinch_1 (8/0)
|   |   |   |   |   |   |   |   |   |   H_variance >= 2.86
|   |   |   |   |   |   |   |   |   |   |   E_median < -2 : pinch_1 (3/0)
|   |   |   |   |   |   |   |   |   |   |   E_median >= -2 : index (2/0)
|   |   |   |   |   |   |   |   |   D_variance >= 125.19 : pinch_1 (39/0)
|   |   |   |   |   |   |   |   D_mean >= 0.15
|   |   |   |   |   |   |   |   |   B_variance < 1.71
|   |   |   |   |   |   |   |   |   |   A_variance < 2.09 : pinch_1 (2/0)
|   |   |   |   |   |   |   |   |   |   A_variance >= 2.09 : rest (2/0)
|   |   |   |   |   |   |   |   |   B_variance >= 1.71
|   |   |   |   |   |   |   |   |   |   C_median < 0.5 : pinch_1 (16/0)
|   |   |   |   |   |   |   |   |   |   C_median >= 0.5
|   |   |   |   |   |   |   |   |   |   |   G_median < -1.5 : pinch_1 (4/0)
|   |   |   |   |   |   |   |   |   |   |   G_median >= -1.5
|   |   |   |   |   |   |   |   |   |   |   |   E_median < 1.5 : spread (4/0)
|   |   |   |   |   |   |   |   |   |   |   |   E_median >= 1.5 : pinch_1 (2/0)
|   |   |   |   |   |   E_variance >= 1112.72
|   |   |   |   |   |   |   E_median < -6
|   |   |   |   |   |   |   |   A_mean < -1 : spread (10/0)
|   |   |   |   |   |   |   |   A_mean >= -1 : pinch_1 (1/0)
|   |   |   |   |   |   |   E_median >= -6
|   |   |   |   |   |   |   |   A_mean < -1.6 : spread (6/0)
|   |   |   |   |   |   |   |   A_mean >= -1.6
|   |   |   |   |   |   |   |   |   A_mean < -0.85 : pinch_1 (15/0)
|   |   |   |   |   |   |   |   |   A_mean >= -0.85 : spread (4/0)
|   |   |   |   |   F_median >= -0.5
|   |   |   |   |   |   C_mean < -1.45
|   |   |   |   |   |   |   G_variance < 20.94 : pinch_1 (46/0)
|   |   |   |   |   |   |   G_variance >= 20.94 : fist (1/0)
|   |   |   |   |   |   C_mean >= -1.45
|   |   |   |   |   |   |   H_mean < -0.55
|   |   |   |   |   |   |   |   C_variance < 23.01
|   |   |   |   |   |   |   |   |   H_median < 0.5 : pinch_1 (27/0)
|   |   |   |   |   |   |   |   |   H_median >= 0.5 : pinch_3 (1/0)
|   |   |   |   |   |   |   |   C_variance >= 23.01
|   |   |   |   |   |   |   |   |   H_median < -1.5
|   |   |   |   |   |   |   |   |   |   H_mean < -1.45 : pinch_1 (3/0)
|   |   |   |   |   |   |   |   |   |   H_mean >= -1.45 : spread (5/0)
|   |   |   |   |   |   |   |   |   H_median >= -1.5 : pinch_1 (19/0)
|   |   |   |   |   |   |   H_mean >= -0.55 : spread (3/0)
|   |   |   H_variance >= 48.71
|   |   |   |   F_variance < 6.09
|   |   |   |   |   G_mean < -1.45 : pinch_3 (3/0)
|   |   |   |   |   G_mean >= -1.45
|   |   |   |   |   |   B_mean < -1.15 : index (11/0)
|   |   |   |   |   |   B_mean >= -1.15
|   |   |   |   |   |   |   B_variance < 2.09 : pinch_3 (2/0)
|   |   |   |   |   |   |   B_variance >= 2.09 : index (1/0)
|   |   |   |   F_variance >= 6.09
|   |   |   |   |   H_median < -3.5
|   |   |   |   |   |   A_median < 0.5 : index (2/0)
|   |   |   |   |   |   A_median >= 0.5 : pinch_1 (3/0)
|   |   |   |   |   H_median >= -3.5
|   |   |   |   |   |   A_variance < 93.76
|   |   |   |   |   |   |   B_mean < -0.55 : pinch_3 (35/0)
|   |   |   |   |   |   |   B_mean >= -0.55 : pinch_1 (1/0)
|   |   |   |   |   |   A_variance >= 93.76 : spread (1/0)
|   |   H_median >= 1.5
|   |   |   E_variance < 25.55 : index (8/0)
|   |   |   E_variance >= 25.55
|   |   |   |   F_variance < 7.11 : index (3/0)
|   |   |   |   F_variance >= 7.11
|   |   |   |   |   F_variance < 24.6 : pinch_3 (14/0)
|   |   |   |   |   F_variance >= 24.6
|   |   |   |   |   |   B_median < -0.5 : pinch_1 (1/0)
|   |   |   |   |   |   B_median >= -0.5 : index (1/0)
G_variance >= 22.77
|   D_variance < 137.67
|   |   H_variance < 74.19
|   |   |   E_variance < 148.52
|   |   |   |   G_mean < -1.35
|   |   |   |   |   G_variance < 51.17
|   |   |   |   |   |   C_variance < 9.1
|   |   |   |   |   |   |   C_median < -1.5
|   |   |   |   |   |   |   |   E_median < -1.5 : fist (3/0)
|   |   |   |   |   |   |   |   E_median >= -1.5 : index (1/0)
|   |   |   |   |   |   |   C_median >= -1.5
|   |   |   |   |   |   |   |   B_mean < -0.95 : index (2/0)
|   |   |   |   |   |   |   |   B_mean >= -0.95 : pinch_3 (1/0)
|   |   |   |   |   |   C_variance >= 9.1 : fist (17/0)
|   |   |   |   |   G_variance >= 51.17
|   |   |   |   |   |   E_mean < -2.9
|   |   |   |   |   |   |   C_variance < 13.38 : fist (1/0)
|   |   |   |   |   |   |   C_variance >= 13.38 : spread (2/0)
|   |   |   |   |   |   E_mean >= -2.9 : index (6/0)
|   |   |   |   G_mean >= -1.35
|   |   |   |   |   D_mean < -2.9 : fist (5/0)
|   |   |   |   |   D_mean >= -2.9
|   |   |   |   |   |   D_variance < 91.31
|   |   |   |   |   |   |   A_mean < -1.6
|   |   |   |   |   |   |   |   D_variance < 22.49 : index (2/0)
|   |   |   |   |   |   |   |   D_variance >= 22.49 : fist (1/0)
|   |   |   |   |   |   |   A_mean >= -1.6 : index (24/0)
|   |   |   |   |   |   D_variance >= 91.31
|   |   |   |   |   |   |   C_mean < -0.95 : pinch_3 (3/0)
|   |   |   |   |   |   |   C_mean >= -0.95
|   |   |   |   |   |   |   |   B_mean < -1.05 : index (1/0)
|   |   |   |   |   |   |   |   B_mean >= -1.05 : fist (1/0)
|   |   |   E_variance >= 148.52
|   |   |   |   C_variance < 9.32
|   |   |   |   |   D_variance < 38.49
|   |   |   |   |   |   E_variance < 346.85
|   |   |   |   |   |   |   H_variance < 7.41 : index (7/0)
|   |   |   |   |   |   |   H_variance >= 7.41
|   |   |   |   |   |   |   |   F_variance < 231.25
|   |   |   |   |   |   |   |   |   B_mean < -1.15 : pinch_1 (1/0)
|   |   |   |   |   |   |   |   |   B_mean >= -1.15 : spread (2/0)
|   |   |   |   |   |   |   |   F_variance >= 231.25 : fist (3/0)
|   |   |   |   |   |   E_variance >= 346.85
|   |   |   |   |   |   |   D_median < 1
|   |   |   |   |   |   |   |   E_variance < 448.23 : fist (6/0)
|   |   |   |   |   |   |   |   E_variance >= 448.23 : spread (1/0)
|   |   |   |   |   |   |   D_median >= 1 : spread (2/0)
|   |   |   |   |   D_variance >= 38.49 : spread (15/0)
|   |   |   |   C_variance >= 9.32
|   |   |   |   |   D_variance < 126.89
|   |   |   |   |   |   A_variance < 99
|   |   |   |   |   |   |   D_mean < -0.65 : fist (14/0)
|   |   |   |   |   |   |   D_mean >= -0.65
|   |   |   |   |   |   |   |   F_median < 1.5
|   |   |   |   |   |   |   |   |   H_variance < 16.45 : spread (2/0)
|   |   |   |   |   |   |   |   |   H_variance >= 16.45 : fist (1/0)
|   |   |   |   |   |   |   |   F_median >= 1.5 : fist (3/0)
|   |   |   |   |   |   A_variance >= 99 : spread (4/0)
|   |   |   |   |   D_variance >= 126.89 : pinch_1 (2/0)
|   |   H_variance >= 74.19
|   |   |   F_mean < -2.85 : fist (40/0)
|   |   |   F_mean >= -2.85
|   |   |   |   F_variance < 168.24
|   |   |   |   |   C_variance < 2.62
|   |   |   |   |   |   A_median < -0.5 : index (5/0)
|   |   |   |   |   |   A_median >= -0.5 : pinch_3 (2/0)
|   |   |   |   |   C_variance >= 2.62
|   |   |   |   |   |   G_variance < 25.71
|   |   |   |   |   |   |   F_variance < 16.13 : index (2/0)
|   |   |   |   |   |   |   F_variance >= 16.13 : pinch_3 (2/0)
|   |   |   |   |   |   G_variance >= 25.71 : pinch_3 (26/0)
|   |   |   |   F_variance >= 168.24 : fist (31/0)
|   D_variance >= 137.67
|   |   F_variance < 589.41
|   |   |   C_variance < 15.55
|   |   |   |   H_mean < -0.15
|   |   |   |   |   E_variance < 339.45
|   |   |   |   |   |   H_variance < 13.99
|   |   |   |   |   |   |   F_variance < 43.4 : spread (8/0)
|   |   |   |   |   |   |   F_variance >= 43.4
|   |   |   |   |   |   |   |   D_variance < 742.67
|   |   |   |   |   |   |   |   |   G_variance < 120.31 : pinch_1 (1/0)
|   |   |   |   |   |   |   |   |   G_variance >= 120.31 : spread (4/0)
|   |   |   |   |   |   |   |   D_variance >= 742.67 : pinch_1 (5/0)
|   |   |   |   |   |   H_variance >= 13.99
|   |   |   |   |   |   |   C_mean < -1.2
|   |   |   |   |   |   |   |   B_median < -1.5 : pinch_1 (5/0)
|   |   |   |   |   |   |   |   B_median >= -1.5 : pinch_3 (1/0)
|   |   |   |   |   |   |   C_mean >= -1.2
|   |   |   |   |   |   |   |   C_mean < -0.9 : pinch_3 (6/0)
|   |   |   |   |   |   |   |   C_mean >= -0.9
|   |   |   |   |   |   |   |   |   D_mean < 1.6 : index (1/0)
|   |   |   |   |   |   |   |   |   D_mean >= 1.6 : pinch_3 (1/0)
|   |   |   |   |   E_variance >= 339.45
|   |   |   |   |   |   B_variance < 3.35 : spread (21/0)
|   |   |   |   |   |   B_variance >= 3.35
|   |   |   |   |   |   |   F_mean < 3.35
|   |   |   |   |   |   |   |   G_variance < 43.15
|   |   |   |   |   |   |   |   |   C_mean < -3.2 : spread (2/0)
|   |   |   |   |   |   |   |   |   C_mean >= -3.2
|   |   |   |   |   |   |   |   |   |   B_median < -1.5 : pinch_1 (5/0)
|   |   |   |   |   |   |   |   |   |   B_median >= -1.5
|   |   |   |   |   |   |   |   |   |   |   B_variance < 4.91 : spread (2/0)
|   |   |   |   |   |   |   |   |   |   |   B_variance >= 4.91 : pinch_1 (4/0)
|   |   |   |   |   |   |   |   G_variance >= 43.15
|   |   |   |   |   |   |   |   |   F_variance < 125.73 : spread (30/0)
|   |   |   |   |   |   |   |   |   F_variance >= 125.73
|   |   |   |   |   |   |   |   |   |   A_mean < -1.25
|   |   |   |   |   |   |   |   |   |   |   A_mean < -1.45 : fist (1/0)
|   |   |   |   |   |   |   |   |   |   |   A_mean >= -1.45 : pinch_1 (2/0)
|   |   |   |   |   |   |   |   |   |   A_mean >= -1.25
|   |   |   |   |   |   |   |   |   |   |   E_variance < 559.77
|   |   |   |   |   |   |   |   |   |   |   |   D_mean < -1.25 : pinch_1 (1/0)
|   |   |   |   |   |   |   |   |   |   |   |   D_mean >= -1.25 : spread (1/0)
|   |   |   |   |   |   |   |   |   |   |   E_variance >= 559.77 : spread (4/0)
|   |   |   |   |   |   |   F_mean >= 3.35 : pinch_1 (4/0)
|   |   |   |   H_mean >= -0.15
|   |   |   |   |   E_mean < -1.85 : pinch_3 (5/0)
|   |   |   |   |   E_mean >= -1.85
|   |   |   |   |   |   A_mean < -0.95 : spread (5/0)
|   |   |   |   |   |   A_mean >= -0.95
|   |   |   |   |   |   |   A_median < -0.5 : pinch_3 (1/0)
|   |   |   |   |   |   |   A_median >= -0.5 : index (1/0)
|   |   |   C_variance >= 15.55
|   |   |   |   G_mean < -3.15
|   |   |   |   |   A_median < -1.5
|   |   |   |   |   |   A_variance < 15.7 : spread (12/0)
|   |   |   |   |   |   A_variance >= 15.7
|   |   |   |   |   |   |   C_variance < 47.91 : pinch_1 (2/0)
|   |   |   |   |   |   |   C_variance >= 47.91
|   |   |   |   |   |   |   |   B_mean < -1.7 : fist (2/0)
|   |   |   |   |   |   |   |   B_mean >= -1.7 : spread (1/0)
|   |   |   |   |   A_median >= -1.5
|   |   |   |   |   |   E_variance < 360.83
|   |   |   |   |   |   |   A_mean < -1.25 : spread (1/0)
|   |   |   |   |   |   |   A_mean >= -1.25 : pinch_1 (1/0)
|   |   |   |   |   |   E_variance >= 360.83 : spread (40/0)
|   |   |   |   G_mean >= -3.15
|   |   |   |   |   G_mean < -0.15
|   |   |   |   |   |   A_variance < 5.43
|   |   |   |   |   |   |   C_variance < 19.91
|   |   |   |   |   |   |   |   A_variance < 1.72 : pinch_1 (3/0)
|   |   |   |   |   |   |   |   A_variance >= 1.72
|   |   |   |   |   |   |   |   |   D_median < 6
|   |   |   |   |   |   |   |   |   |   D_median < -9 : pinch_1 (1/0)
|   |   |   |   |   |   |   |   |   |   D_median >= -9 : spread (9/0)
|   |   |   |   |   |   |   |   |   D_median >= 6 : pinch_1 (2/0)
|   |   |   |   |   |   |   C_variance >= 19.91
|   |   |   |   |   |   |   |   E_variance < 257.01
|   |   |   |   |   |   |   |   |   H_mean < -1.25 : pinch_1 (3/0)
|   |   |   |   |   |   |   |   |   H_mean >= -1.25 : spread (4/0)
|   |   |   |   |   |   |   |   E_variance >= 257.01
|   |   |   |   |   |   |   |   |   A_mean < -1.35
|   |   |   |   |   |   |   |   |   |   H_mean < -1.65 : spread (15/0)
|   |   |   |   |   |   |   |   |   |   H_mean >= -1.65
|   |   |   |   |   |   |   |   |   |   |   F_mean < -2.85
|   |   |   |   |   |   |   |   |   |   |   |   E_mean < -2.55 : spread (1/0)
|   |   |   |   |   |   |   |   |   |   |   |   E_mean >= -2.55 : pinch_1 (4/0)
|   |   |   |   |   |   |   |   |   |   |   F_mean >= -2.85 : spread (13/0)
|   |   |   |   |   |   |   |   |   A_mean >= -1.35 : spread (30/0)
|   |   |   |   |   |   A_variance >= 5.43
|   |   |   |   |   |   |   D_variance < 207.43 : pinch_1 (9/0)
|   |   |   |   |   |   |   D_variance >= 207.43
|   |   |   |   |   |   |   |   H_mean < -0.55
|   |   |   |   |   |   |   |   |   C_median < 2.5
|   |   |   |   |   |   |   |   |   |   C_mean < -1.85
|   |   |   |   |   |   |   |   |   |   |   F_mean < -0.25 : spread (27/0)
|   |   |   |   |   |   |   |   |   |   |   F_mean >= -0.25
|   |   |   |   |   |   |   |   |   |   |   |   A_mean < -1.8 : spread (1/0)
|   |   |   |   |   |   |   |   |   |   |   |   A_mean >= -1.8
|   |   |   |   |   |   |   |   |   |   |   |   |   A_variance < 9.15 : spread (1/0)
|   |   |   |   |   |   |   |   |   |   |   |   |   A_variance >= 9.15 : pinch_1 (2/0)
|   |   |   |   |   |   |   |   |   |   C_mean >= -1.85
|   |   |   |   |   |   |   |   |   |   |   E_median < 3.5
|   |   |   |   |   |   |   |   |   |   |   |   F_median < 1.5
|   |   |   |   |   |   |   |   |   |   |   |   |   F_variance < 144.67
|   |   |   |   |   |   |   |   |   |   |   |   |   |   D_variance < 685.66 : pinch_1 (9/0)
|   |   |   |   |   |   |   |   |   |   |   |   |   |   D_variance >= 685.66
|   |   |   |   |   |   |   |   |   |   |   |   |   |   |   F_median < -1.5
|   |   |   |   |   |   |   |   |   |   |   |   |   |   |   |   F_variance < 93.99 : spread (6/0)
|   |   |   |   |   |   |   |   |   |   |   |   |   |   |   |   F_variance >= 93.99 : pinch_1 (4/0)
|   |   |   |   |   |   |   |   |   |   |   |   |   |   |   F_median >= -1.5
|   |   |   |   |   |   |   |   |   |   |   |   |   |   |   |   H_mean < -1.85
|   |   |   |   |   |   |   |   |   |   |   |   |   |   |   |   |   D_mean < -2.4 : pinch_1 (1/0)
|   |   |   |   |   |   |   |   |   |   |   |   |   |   |   |   |   D_mean >= -2.4 : spread (1/0)
|   |   |   |   |   |   |   |   |   |   |   |   |   |   |   |   H_mean >= -1.85 : pinch_1 (10/0)
|   |   |   |   |   |   |   |   |   |   |   |   |   F_variance >= 144.67
|   |   |   |   |   |   |   |   |   |   |   |   |   |   A_variance < 10.51
|   |   |   |   |   |   |   |   |   |   |   |   |   |   |   H_variance < 8.45
|   |   |   |   |   |   |   |   |   |   |   |   |   |   |   |   E_variance < 345.27 : spread (3/0)
|   |   |   |   |   |   |   |   |   |   |   |   |   |   |   |   E_variance >= 345.27 : pinch_1 (1/0)
|   |   |   |   |   |   |   |   |   |   |   |   |   |   |   H_variance >= 8.45 : pinch_1 (4/0)
|   |   |   |   |   |   |   |   |   |   |   |   |   |   A_variance >= 10.51 : spread (8/0)
|   |   |   |   |   |   |   |   |   |   |   |   F_median >= 1.5
|   |   |   |   |   |   |   |   |   |   |   |   |   H_variance < 5.47 : pinch_1 (1/0)
|   |   |   |   |   |   |   |   |   |   |   |   |   H_variance >= 5.47 : spread (15/0)
|   |   |   |   |   |   |   |   |   |   |   E_median >= 3.5 : spread (16/0)
|   |   |   |   |   |   |   |   |   C_median >= 2.5 : pinch_1 (8/0)
|   |   |   |   |   |   |   |   H_mean >= -0.55
|   |   |   |   |   |   |   |   |   G_variance < 390.55
|   |   |   |   |   |   |   |   |   |   B_variance < 6.53 : spread (1/0)
|   |   |   |   |   |   |   |   |   |   B_variance >= 6.53 : pinch_1 (15/0)
|   |   |   |   |   |   |   |   |   G_variance >= 390.55 : spread (2/0)
|   |   |   |   |   G_mean >= -0.15
|   |   |   |   |   |   D_variance < 881.43 : spread (38/0)
|   |   |   |   |   |   D_variance >= 881.43
|   |   |   |   |   |   |   D_variance < 1610.19
|   |   |   |   |   |   |   |   D_mean < 2.4
|   |   |   |   |   |   |   |   |   F_median < -4.5 : pinch_1 (3/0)
|   |   |   |   |   |   |   |   |   F_median >= -4.5
|   |   |   |   |   |   |   |   |   |   E_median < -6.5
|   |   |   |   |   |   |   |   |   |   |   D_variance < 1144.03
|   |   |   |   |   |   |   |   |   |   |   |   A_variance < 17.23 : pinch_1 (1/0)
|   |   |   |   |   |   |   |   |   |   |   |   A_variance >= 17.23 : spread (2/0)
|   |   |   |   |   |   |   |   |   |   |   D_variance >= 1144.03 : pinch_1 (5/0)
|   |   |   |   |   |   |   |   |   |   E_median >= -6.5
|   |   |   |   |   |   |   |   |   |   |   D_median < 13 : spread (15/0)
|   |   |   |   |   |   |   |   |   |   |   D_median >= 13 : pinch_1 (1/0)
|   |   |   |   |   |   |   |   D_mean >= 2.4 : spread (11/0)
|   |   |   |   |   |   |   D_variance >= 1610.19 : spread (22/0)
|   |   F_variance >= 589.41
|   |   |   H_mean < -2.25 : fist (31/0)
|   |   |   H_mean >= -2.25
|   |   |   |   H_variance < 531.58 : spread (10/0)
|   |   |   |   H_variance >= 531.58 : fist (16/0)

Size of the tree : 483


RandomTree
==========

D_variance < 114.49
|   F_variance < 54.61
|   |   C_variance < 1.81
|   |   |   B_variance < 2.55
|   |   |   |   G_median < 0.5
|   |   |   |   |   E_variance < 37.37 : rest (41/0)
|   |   |   |   |   E_variance >= 37.37 : pinch_1 (2/0)
|   |   |   |   G_median >= 0.5 : index (2/0)
|   |   |   B_variance >= 2.55 : index (3/0)
|   |   C_variance >= 1.81
|   |   |   G_variance < 2.53
|   |   |   |   E_variance < 113.26
|   |   |   |   |   B_mean < -2 : index (2/0)
|   |   |   |   |   B_mean >= -2
|   |   |   |   |   |   A_variance < 2.26 : rest (19/0)
|   |   |   |   |   |   A_variance >= 2.26
|   |   |   |   |   |   |   D_mean < 0.7
|   |   |   |   |   |   |   |   C_median < -0.5 : pinch_3 (2/0)
|   |   |   |   |   |   |   |   C_median >= -0.5 : pinch_1 (1/0)
|   |   |   |   |   |   |   D_mean >= 0.7 : rest (3/0)
|   |   |   |   E_variance >= 113.26
|   |   |   |   |   G_mean < -1.65
|   |   |   |   |   |   A_variance < 3.18
|   |   |   |   |   |   |   A_median < -0.5 : pinch_3 (2/0)
|   |   |   |   |   |   |   A_median >= -0.5 : pinch_1 (1/0)
|   |   |   |   |   |   A_variance >= 3.18 : rest (3/0)
|   |   |   |   |   G_mean >= -1.65 : pinch_1 (14/0)
|   |   |   G_variance >= 2.53
|   |   |   |   D_variance < 34.78
|   |   |   |   |   H_variance < 1.75
|   |   |   |   |   |   A_median < -0.5
|   |   |   |   |   |   |   B_variance < 2.17 : index (23/0)
|   |   |   |   |   |   |   B_variance >= 2.17
|   |   |   |   |   |   |   |   E_median < -2.5 : index (4/0)
|   |   |   |   |   |   |   |   E_median >= -2.5
|   |   |   |   |   |   |   |   |   F_variance < 2.25 : rest (1/0)
|   |   |   |   |   |   |   |   |   F_variance >= 2.25
|   |   |   |   |   |   |   |   |   |   B_median < -0.5
|   |   |   |   |   |   |   |   |   |   |   A_variance < 5.74 : pinch_1 (7/0)
|   |   |   |   |   |   |   |   |   |   |   A_variance >= 5.74 : index (1/0)
|   |   |   |   |   |   |   |   |   |   B_median >= -0.5 : index (3/0)
|   |   |   |   |   |   A_median >= -0.5 : rest (3/0)
|   |   |   |   |   H_variance >= 1.75
|   |   |   |   |   |   E_median < 2.5
|   |   |   |   |   |   |   B_variance < 3.88
|   |   |   |   |   |   |   |   D_variance < 27.07
|   |   |   |   |   |   |   |   |   G_variance < 88.35 : index (50/0)
|   |   |   |   |   |   |   |   |   G_variance >= 88.35
|   |   |   |   |   |   |   |   |   |   B_median < -1.5 : pinch_1 (1/0)
|   |   |   |   |   |   |   |   |   |   B_median >= -1.5 : index (1/0)
|   |   |   |   |   |   |   |   D_variance >= 27.07
|   |   |   |   |   |   |   |   |   A_variance < 1.69
|   |   |   |   |   |   |   |   |   |   A_mean < -1.25 : pinch_3 (2/0)
|   |   |   |   |   |   |   |   |   |   A_mean >= -1.25 : index (2/0)
|   |   |   |   |   |   |   |   |   A_variance >= 1.69 : index (4/0)
|   |   |   |   |   |   |   B_variance >= 3.88
|   |   |   |   |   |   |   |   A_variance < 2.79 : pinch_1 (1/0)
|   |   |   |   |   |   |   |   A_variance >= 2.79
|   |   |   |   |   |   |   |   |   E_variance < 77.72
|   |   |   |   |   |   |   |   |   |   D_variance < 10.41 : index (1/0)
|   |   |   |   |   |   |   |   |   |   D_variance >= 10.41 : pinch_3 (2/0)
|   |   |   |   |   |   |   |   |   E_variance >= 77.72 : pinch_3 (4/0)
|   |   |   |   |   |   E_median >= 2.5
|   |   |   |   |   |   |   C_mean < -1.3 : fist (3/0)
|   |   |   |   |   |   |   C_mean >= -1.3 : index (3/0)
|   |   |   |   D_variance >= 34.78
|   |   |   |   |   G_variance < 9.45
|   |   |   |   |   |   H_variance < 45.23
|   |   |   |   |   |   |   E_variance < 66.72
|   |   |   |   |   |   |   |   A_median < -1.5 : rest (2/0)
|   |   |   |   |   |   |   |   A_median >= -1.5
|   |   |   |   |   |   |   |   |   G_median < -0.5 : pinch_3 (4/0)
|   |   |   |   |   |   |   |   |   G_median >= -0.5 : pinch_1 (2/0)
|   |   |   |   |   |   |   E_variance >= 66.72
|   |   |   |   |   |   |   |   E_mean < -5.15 : pinch_3 (1/0)
|   |   |   |   |   |   |   |   E_mean >= -5.15
|   |   |   |   |   |   |   |   |   A_mean < -1.5
|   |   |   |   |   |   |   |   |   |   B_variance < 4.13
|   |   |   |   |   |   |   |   |   |   |   A_variance < 2.54 : pinch_3 (2/0)
|   |   |   |   |   |   |   |   |   |   |   A_variance >= 2.54 : pinch_1 (1/0)
|   |   |   |   |   |   |   |   |   |   B_variance >= 4.13 : pinch_1 (8/0)
|   |   |   |   |   |   |   |   |   A_mean >= -1.5 : pinch_1 (33/0)
|   |   |   |   |   |   H_variance >= 45.23
|   |   |   |   |   |   |   A_variance < 4.87
|   |   |   |   |   |   |   |   D_mean < -0.15
|   |   |   |   |   |   |   |   |   B_variance < 3.4 : pinch_3 (5/0)
|   |   |   |   |   |   |   |   |   B_variance >= 3.4
|   |   |   |   |   |   |   |   |   |   B_mean < -1.75 : index (1/0)
|   |   |   |   |   |   |   |   |   |   B_mean >= -1.75 : pinch_3 (4/0)
|   |   |   |   |   |   |   |   D_mean >= -0.15 : index (2/0)
|   |   |   |   |   |   |   A_variance >= 4.87 : index (6/0)
|   |   |   |   |   G_variance >= 9.45
|   |   |   |   |   |   H_variance < 35.1
|   |   |   |   |   |   |   C_mean < -2.05 : spread (4/0)
|   |   |   |   |   |   |   C_mean >= -2.05
|   |   |   |   |   |   |   |   C_variance < 6.55 : pinch_3 (8/0)
|   |   |   |   |   |   |   |   C_variance >= 6.55
|   |   |   |   |   |   |   |   |   D_mean < -1.25
|   |   |   |   |   |   |   |   |   |   A_mean < -1.4 : spread (1/0)
|   |   |   |   |   |   |   |   |   |   A_mean >= -1.4 : pinch_1 (4/0)
|   |   |   |   |   |   |   |   |   D_mean >= -1.25
|   |   |   |   |   |   |   |   |   |   A_variance < 1.63 : index (4/0)
|   |   |   |   |   |   |   |   |   |   A_variance >= 1.63 : pinch_1 (1/0)
|   |   |   |   |   |   H_variance >= 35.1
|   |   |   |   |   |   |   E_mean < -1.1
|   |   |   |   |   |   |   |   C_variance < 9.08
|   |   |   |   |   |   |   |   |   H_mean < -3.25
|   |   |   |   |   |   |   |   |   |   A_mean < -1.4 : pinch_3 (1/0)
|   |   |   |   |   |   |   |   |   |   A_mean >= -1.4 : index (3/0)
|   |   |   |   |   |   |   |   |   H_mean >= -3.25
|   |   |   |   |   |   |   |   |   |   B_variance < 1.23 : index (1/0)
|   |   |   |   |   |   |   |   |   |   B_variance >= 1.23 : pinch_3 (19/0)
|   |   |   |   |   |   |   |   C_variance >= 9.08 : index (4/0)
|   |   |   |   |   |   |   E_mean >= -1.1
|   |   |   |   |   |   |   |   E_median < 7 : pinch_3 (30/0)
|   |   |   |   |   |   |   |   E_median >= 7 : index (1/0)
|   F_variance >= 54.61
|   |   C_variance < 9.32
|   |   |   D_variance < 18.02
|   |   |   |   H_variance < 6.71
|   |   |   |   |   D_median < -3.5 : fist (2/0)
|   |   |   |   |   D_median >= -3.5
|   |   |   |   |   |   F_mean < -2.2
|   |   |   |   |   |   |   F_mean < -2.5 : index (11/0)
|   |   |   |   |   |   |   F_mean >= -2.5
|   |   |   |   |   |   |   |   A_variance < 1.05 : index (1/0)
|   |   |   |   |   |   |   |   A_variance >= 1.05 : rest (1/0)
|   |   |   |   |   |   F_mean >= -2.2 : index (33/0)
|   |   |   |   H_variance >= 6.71 : fist (10/0)
|   |   |   D_variance >= 18.02
|   |   |   |   H_variance < 48.67
|   |   |   |   |   A_variance < 2.42
|   |   |   |   |   |   E_median < -0.5
|   |   |   |   |   |   |   H_mean < -1.55 : index (1/0)
|   |   |   |   |   |   |   H_mean >= -1.55 : fist (6/0)
|   |   |   |   |   |   E_median >= -0.5
|   |   |   |   |   |   |   D_variance < 21.1 : pinch_1 (1/0)
|   |   |   |   |   |   |   D_variance >= 21.1 : index (7/0)
|   |   |   |   |   A_variance >= 2.42
|   |   |   |   |   |   C_variance < 5.67
|   |   |   |   |   |   |   H_mean < -1.4
|   |   |   |   |   |   |   |   A_mean < -1.65 : fist (1/0)
|   |   |   |   |   |   |   |   A_mean >= -1.65 : index (5/0)
|   |   |   |   |   |   |   H_mean >= -1.4
|   |   |   |   |   |   |   |   H_variance < 5.91 : index (4/0)
|   |   |   |   |   |   |   |   H_variance >= 5.91 : spread (10/0)
|   |   |   |   |   |   C_variance >= 5.67
|   |   |   |   |   |   |   G_variance < 90.51
|   |   |   |   |   |   |   |   A_median < -0.5 : fist (8/0)
|   |   |   |   |   |   |   |   A_median >= -0.5
|   |   |   |   |   |   |   |   |   A_mean < -0.95 : fist (2/0)
|   |   |   |   |   |   |   |   |   A_mean >= -0.95 : index (1/0)
|   |   |   |   |   |   |   G_variance >= 90.51 : spread (4/0)
|   |   |   |   H_variance >= 48.67
|   |   |   |   |   G_variance < 35.11 : pinch_3 (4/0)
|   |   |   |   |   G_variance >= 35.11
|   |   |   |   |   |   G_median < -1.5 : fist (5/0)
|   |   |   |   |   |   G_median >= -1.5 : pinch_3 (1/0)
|   |   C_variance >= 9.32
|   |   |   H_variance < 1.31 : index (5/0)
|   |   |   H_variance >= 1.31
|   |   |   |   B_variance < 10.53
|   |   |   |   |   A_mean < -1.35
|   |   |   |   |   |   F_variance < 253.11
|   |   |   |   |   |   |   F_variance < 240.28 : fist (8/0)
|   |   |   |   |   |   |   F_variance >= 240.28 : pinch_1 (1/0)
|   |   |   |   |   |   F_variance >= 253.11 : fist (30/0)
|   |   |   |   |   A_mean >= -1.35
|   |   |   |   |   |   F_variance < 207.21
|   |   |   |   |   |   |   A_variance < 3.15 : fist (6/0)
|   |   |   |   |   |   |   A_variance >= 3.15
|   |   |   |   |   |   |   |   C_mean < -1.4
|   |   |   |   |   |   |   |   |   E_variance < 211.29 : index (4/0)
|   |   |   |   |   |   |   |   |   E_variance >= 211.29
|   |   |   |   |   |   |   |   |   |   A_mean < -1.2 : index (1/0)
|   |   |   |   |   |   |   |   |   |   A_mean >= -1.2 : fist (1/0)
|   |   |   |   |   |   |   |   C_mean >= -1.4 : fist (4/0)
|   |   |   |   |   |   F_variance >= 207.21
|   |   |   |   |   |   |   D_mean < -0.15 : fist (39/0)
|   |   |   |   |   |   |   D_mean >= -0.15
|   |   |   |   |   |   |   |   F_median < -2.5 : fist (5/0)
|   |   |   |   |   |   |   |   F_median >= -2.5 : index (1/0)
|   |   |   |   B_variance >= 10.53
|   |   |   |   |   B_variance < 11.26 : spread (1/0)
|   |   |   |   |   B_variance >= 11.26
|   |   |   |   |   |   G_variance < 42.18 : pinch_1 (1/0)
|   |   |   |   |   |   G_variance >= 42.18 : fist (6/0)
D_variance >= 114.49
|   G_median < 0.5
|   |   H_variance < 2.59
|   |   |   A_variance < 2.81
|   |   |   |   H_variance < 2.01
|   |   |   |   |   E_median < -7.5 : pinch_1 (10/0)
|   |   |   |   |   E_median >= -7.5
|   |   |   |   |   |   E_variance < 382.17
|   |   |   |   |   |   |   D_median < -0.5
|   |   |   |   |   |   |   |   F_mean < -1.15
|   |   |   |   |   |   |   |   |   F_variance < 2.89 : rest (2/0)
|   |   |   |   |   |   |   |   |   F_variance >= 2.89
|   |   |   |   |   |   |   |   |   |   H_mean < -1.7
|   |   |   |   |   |   |   |   |   |   |   A_variance < 1.55 : pinch_1 (1/0)
|   |   |   |   |   |   |   |   |   |   |   A_variance >= 1.55 : rest (2/0)
|   |   |   |   |   |   |   |   |   |   H_mean >= -1.7 : pinch_1 (13/0)
|   |   |   |   |   |   |   |   F_mean >= -1.15 : rest (13/0)
|   |   |   |   |   |   |   D_median >= -0.5
|   |   |   |   |   |   |   |   H_variance < 1.05
|   |   |   |   |   |   |   |   |   B_variance < 1.91 : rest (5/0)
|   |   |   |   |   |   |   |   |   B_variance >= 1.91
|   |   |   |   |   |   |   |   |   |   E_median < -1.5 : pinch_1 (3/0)
|   |   |   |   |   |   |   |   |   |   E_median >= -1.5
|   |   |   |   |   |   |   |   |   |   |   F_median < -0.5 : pinch_1 (1/0)
|   |   |   |   |   |   |   |   |   |   |   F_median >= -0.5 : rest (3/0)
|   |   |   |   |   |   |   |   H_variance >= 1.05 : rest (30/0)
|   |   |   |   |   |   E_variance >= 382.17
|   |   |   |   |   |   |   E_mean < -2.75 : rest (1/0)
|   |   |   |   |   |   |   E_mean >= -2.75 : pinch_1 (14/0)
|   |   |   |   H_variance >= 2.01
|   |   |   |   |   G_variance < 8.26
|   |   |   |   |   |   A_variance < 2.72
|   |   |   |   |   |   |   E_median < 2.5
|   |   |   |   |   |   |   |   E_variance < 181.92
|   |   |   |   |   |   |   |   |   B_variance < 1.26 : pinch_1 (1/0)
|   |   |   |   |   |   |   |   |   B_variance >= 1.26
|   |   |   |   |   |   |   |   |   |   D_median < 0 : pinch_3 (2/0)
|   |   |   |   |   |   |   |   |   |   D_median >= 0 : rest (4/0)
|   |   |   |   |   |   |   |   E_variance >= 181.92
|   |   |   |   |   |   |   |   |   D_variance < 809.83 : pinch_1 (22/0)
|   |   |   |   |   |   |   |   |   D_variance >= 809.83 : rest (3/0)
|   |   |   |   |   |   |   E_median >= 2.5
|   |   |   |   |   |   |   |   F_variance < 15 : pinch_3 (4/0)
|   |   |   |   |   |   |   |   F_variance >= 15 : pinch_1 (9/0)
|   |   |   |   |   |   A_variance >= 2.72 : rest (5/0)
|   |   |   |   |   G_variance >= 8.26 : spread (6/0)
|   |   |   A_variance >= 2.81
|   |   |   |   E_variance < 141.16
|   |   |   |   |   D_mean < -5 : spread (3/0)
|   |   |   |   |   D_mean >= -5
|   |   |   |   |   |   D_variance < 257.57 : pinch_3 (2/0)
|   |   |   |   |   |   D_variance >= 257.57 : rest (3/0)
|   |   |   |   E_variance >= 141.16
|   |   |   |   |   A_variance < 3.39
|   |   |   |   |   |   C_variance < 17.2
|   |   |   |   |   |   |   D_median < -4 : rest (1/0)
|   |   |   |   |   |   |   D_median >= -4 : pinch_1 (6/0)
|   |   |   |   |   |   C_variance >= 17.2
|   |   |   |   |   |   |   D_median < -0.5 : spread (4/0)
|   |   |   |   |   |   |   D_median >= -0.5 : pinch_1 (6/0)
|   |   |   |   |   A_variance >= 3.39 : pinch_1 (31/0)
|   |   H_variance >= 2.59
|   |   |   C_variance < 14.25
|   |   |   |   H_variance < 14.29
|   |   |   |   |   A_mean < -0.65
|   |   |   |   |   |   A_mean < -1.35
|   |   |   |   |   |   |   G_mean < -1.5
|   |   |   |   |   |   |   |   A_variance < 2.52 : spread (13/0)
|   |   |   |   |   |   |   |   A_variance >= 2.52
|   |   |   |   |   |   |   |   |   E_mean < -8.4 : spread (2/0)
|   |   |   |   |   |   |   |   |   E_mean >= -8.4
|   |   |   |   |   |   |   |   |   |   F_variance < 19.25 : spread (1/0)
|   |   |   |   |   |   |   |   |   |   F_variance >= 19.25 : pinch_1 (5/0)
|   |   |   |   |   |   |   G_mean >= -1.5
|   |   |   |   |   |   |   |   F_variance < 9.21
|   |   |   |   |   |   |   |   |   F_variance < 4.87 : pinch_3 (2/0)
|   |   |   |   |   |   |   |   |   F_variance >= 4.87 : rest (6/0)
|   |   |   |   |   |   |   |   F_variance >= 9.21
|   |   |   |   |   |   |   |   |   E_median < 3
|   |   |   |   |   |   |   |   |   |   H_variance < 2.71 : spread (2/0)
|   |   |   |   |   |   |   |   |   |   H_variance >= 2.71
|   |   |   |   |   |   |   |   |   |   |   H_variance < 9.19 : pinch_1 (10/0)
|   |   |   |   |   |   |   |   |   |   |   H_variance >= 9.19
|   |   |   |   |   |   |   |   |   |   |   |   A_variance < 5 : rest (1/0)
|   |   |   |   |   |   |   |   |   |   |   |   A_variance >= 5 : pinch_1 (1/0)
|   |   |   |   |   |   |   |   |   E_median >= 3
|   |   |   |   |   |   |   |   |   |   A_variance < 1.53 : index (2/0)
|   |   |   |   |   |   |   |   |   |   A_variance >= 1.53 : spread (2/0)
|   |   |   |   |   |   A_mean >= -1.35
|   |   |   |   |   |   |   E_mean < -1.9
|   |   |   |   |   |   |   |   H_median < -1.5
|   |   |   |   |   |   |   |   |   B_median < -1.5 : pinch_1 (6/0)
|   |   |   |   |   |   |   |   |   B_median >= -1.5
|   |   |   |   |   |   |   |   |   |   D_mean < -1.55
|   |   |   |   |   |   |   |   |   |   |   A_mean < -1.25 : rest (1/0)
|   |   |   |   |   |   |   |   |   |   |   A_mean >= -1.25 : spread (5/0)
|   |   |   |   |   |   |   |   |   |   D_mean >= -1.55 : pinch_1 (4/0)
|   |   |   |   |   |   |   |   H_median >= -1.5
|   |   |   |   |   |   |   |   |   G_mean < -1.05
|   |   |   |   |   |   |   |   |   |   B_median < -0.5
|   |   |   |   |   |   |   |   |   |   |   A_median < -1.5 : pinch_1 (1/0)
|   |   |   |   |   |   |   |   |   |   |   A_median >= -1.5 : rest (8/0)
|   |   |   |   |   |   |   |   |   |   B_median >= -0.5 : pinch_1 (3/0)
|   |   |   |   |   |   |   |   |   G_mean >= -1.05
|   |   |   |   |   |   |   |   |   |   E_variance < 159.63 : pinch_3 (1/0)
|   |   |   |   |   |   |   |   |   |   E_variance >= 159.63 : pinch_1 (3/0)
|   |   |   |   |   |   |   E_mean >= -1.9
|   |   |   |   |   |   |   |   G_variance < 2.3
|   |   |   |   |   |   |   |   |   B_mean < -0.75 : pinch_3 (4/0)
|   |   |   |   |   |   |   |   |   B_mean >= -0.75 : rest (1/0)
|   |   |   |   |   |   |   |   G_variance >= 2.3
|   |   |   |   |   |   |   |   |   A_variance < 4.35 : pinch_1 (18/0)
|   |   |   |   |   |   |   |   |   A_variance >= 4.35
|   |   |   |   |   |   |   |   |   |   A_variance < 5.18 : pinch_3 (1/0)
|   |   |   |   |   |   |   |   |   |   A_variance >= 5.18 : pinch_1 (4/0)
|   |   |   |   |   A_mean >= -0.65
|   |   |   |   |   |   D_mean < -4.45 : rest (1/0)
|   |   |   |   |   |   D_mean >= -4.45 : spread (9/0)
|   |   |   |   H_variance >= 14.29
|   |   |   |   |   A_variance < 10.87
|   |   |   |   |   |   B_mean < -1.35
|   |   |   |   |   |   |   B_variance < 6.85
|   |   |   |   |   |   |   |   E_variance < 261.49
|   |   |   |   |   |   |   |   |   H_mean < -3.25 : index (3/0)
|   |   |   |   |   |   |   |   |   H_mean >= -3.25
|   |   |   |   |   |   |   |   |   |   H_variance < 151.92 : pinch_3 (11/0)
|   |   |   |   |   |   |   |   |   |   H_variance >= 151.92 : index (3/0)
|   |   |   |   |   |   |   |   E_variance >= 261.49 : pinch_1 (2/0)
|   |   |   |   |   |   |   B_variance >= 6.85 : spread (2/0)
|   |   |   |   |   |   B_mean >= -1.35
|   |   |   |   |   |   |   D_variance < 739.43 : pinch_3 (25/0)
|   |   |   |   |   |   |   D_variance >= 739.43 : rest (1/0)
|   |   |   |   |   A_variance >= 10.87
|   |   |   |   |   |   G_variance < 16.25 : pinch_1 (7/0)
|   |   |   |   |   |   G_variance >= 16.25
|   |   |   |   |   |   |   C_mean < -0.95 : spread (5/0)
|   |   |   |   |   |   |   C_mean >= -0.95
|   |   |   |   |   |   |   |   B_variance < 1.29 : pinch_3 (1/0)
|   |   |   |   |   |   |   |   B_variance >= 1.29 : fist (1/0)
|   |   |   C_variance >= 14.25
|   |   |   |   G_mean < -2.55
|   |   |   |   |   H_median < -4.5 : fist (7/0)
|   |   |   |   |   H_median >= -4.5
|   |   |   |   |   |   B_mean < -1.9
|   |   |   |   |   |   |   B_variance < 7.02 : fist (5/0)
|   |   |   |   |   |   |   B_variance >= 7.02
|   |   |   |   |   |   |   |   B_mean < -2.25 : spread (2/0)
|   |   |   |   |   |   |   |   B_mean >= -2.25 : fist (1/0)
|   |   |   |   |   |   B_mean >= -1.9
|   |   |   |   |   |   |   A_variance < 10.33
|   |   |   |   |   |   |   |   F_variance < 34.83
|   |   |   |   |   |   |   |   |   F_mean < -2.75 : spread (3/0)
|   |   |   |   |   |   |   |   |   F_mean >= -2.75 : pinch_1 (2/0)
|   |   |   |   |   |   |   |   F_variance >= 34.83 : spread (33/0)
|   |   |   |   |   |   |   A_variance >= 10.33
|   |   |   |   |   |   |   |   F_variance < 372.42
|   |   |   |   |   |   |   |   |   G_variance < 44.19 : pinch_1 (3/0)
|   |   |   |   |   |   |   |   |   G_variance >= 44.19
|   |   |   |   |   |   |   |   |   |   G_median < -3.5
|   |   |   |   |   |   |   |   |   |   |   A_median < 0.5
|   |   |   |   |   |   |   |   |   |   |   |   G_mean < -8.35 : spread (1/0)
|   |   |   |   |   |   |   |   |   |   |   |   G_mean >= -8.35 : pinch_1 (2/0)
|   |   |   |   |   |   |   |   |   |   |   A_median >= 0.5 : spread (3/0)
|   |   |   |   |   |   |   |   |   |   G_median >= -3.5 : spread (10/0)
|   |   |   |   |   |   |   |   F_variance >= 372.42 : fist (2/0)
|   |   |   |   G_mean >= -2.55
|   |   |   |   |   D_variance < 809.13
|   |   |   |   |   |   G_variance < 25.41
|   |   |   |   |   |   |   C_variance < 17.87
|   |   |   |   |   |   |   |   D_variance < 352.48
|   |   |   |   |   |   |   |   |   G_variance < 8.66
|   |   |   |   |   |   |   |   |   |   F_variance < 17.33
|   |   |   |   |   |   |   |   |   |   |   D_median < -1 : pinch_1 (1/0)
|   |   |   |   |   |   |   |   |   |   |   D_median >= -1 : pinch_3 (3/0)
|   |   |   |   |   |   |   |   |   |   F_variance >= 17.33 : pinch_1 (3/0)
|   |   |   |   |   |   |   |   |   G_variance >= 8.66 : spread (7/0)
|   |   |   |   |   |   |   |   D_variance >= 352.48 : pinch_1 (11/0)
|   |   |   |   |   |   |   C_variance >= 17.87
|   |   |   |   |   |   |   |   G_variance < 3.35
|   |   |   |   |   |   |   |   |   A_median < -0.5 : rest (5/0)
|   |   |   |   |   |   |   |   |   A_median >= -0.5 : pinch_1 (3/0)
|   |   |   |   |   |   |   |   G_variance >= 3.35
|   |   |   |   |   |   |   |   |   F_variance < 6.87 : index (1/0)
|   |   |   |   |   |   |   |   |   F_variance >= 6.87
|   |   |   |   |   |   |   |   |   |   E_variance < 183.23
|   |   |   |   |   |   |   |   |   |   |   F_variance < 35.49
|   |   |   |   |   |   |   |   |   |   |   |   A_mean < -1.15 : spread (4/0)
|   |   |   |   |   |   |   |   |   |   |   |   A_mean >= -1.15 : pinch_1 (3/0)
|   |   |   |   |   |   |   |   |   |   |   F_variance >= 35.49
|   |   |   |   |   |   |   |   |   |   |   |   E_mean < 0.75 : pinch_1 (6/0)
|   |   |   |   |   |   |   |   |   |   |   |   E_mean >= 0.75 : pinch_3 (1/0)
|   |   |   |   |   |   |   |   |   |   E_variance >= 183.23
|   |   |   |   |   |   |   |   |   |   |   E_mean < -0.3 : pinch_1 (62/0)
|   |   |   |   |   |   |   |   |   |   |   E_mean >= -0.3
|   |   |   |   |   |   |   |   |   |   |   |   D_variance < 432.71 : pinch_1 (12/0)
|   |   |   |   |   |   |   |   |   |   |   |   D_variance >= 432.71
|   |   |   |   |   |   |   |   |   |   |   |   |   D_mean < 0.95
|   |   |   |   |   |   |   |   |   |   |   |   |   |   C_mean < 0.25 : spread (4/0)
|   |   |   |   |   |   |   |   |   |   |   |   |   |   C_mean >= 0.25 : pinch_1 (1/0)
|   |   |   |   |   |   |   |   |   |   |   |   |   D_mean >= 0.95 : pinch_1 (4/0)
|   |   |   |   |   |   G_variance >= 25.41
|   |   |   |   |   |   |   H_variance < 74.14
|   |   |   |   |   |   |   |   A_variance < 9.73
|   |   |   |   |   |   |   |   |   D_mean < -1 : spread (21/0)
|   |   |   |   |   |   |   |   |   D_mean >= -1
|   |   |   |   |   |   |   |   |   |   F_mean < 0.1
|   |   |   |   |   |   |   |   |   |   |   G_variance < 235.88
|   |   |   |   |   |   |   |   |   |   |   |   C_mean < -0.6 : pinch_1 (9/0)
|   |   |   |   |   |   |   |   |   |   |   |   C_mean >= -0.6 : spread (1/0)
|   |   |   |   |   |   |   |   |   |   |   G_variance >= 235.88 : spread (3/0)
|   |   |   |   |   |   |   |   |   |   F_mean >= 0.1 : spread (3/0)
|   |   |   |   |   |   |   |   A_variance >= 9.73
|   |   |   |   |   |   |   |   |   H_variance < 11.95
|   |   |   |   |   |   |   |   |   |   A_mean < -1.3 : spread (8/0)
|   |   |   |   |   |   |   |   |   |   A_mean >= -1.3
|   |   |   |   |   |   |   |   |   |   |   C_median < 0 : spread (1/0)
|   |   |   |   |   |   |   |   |   |   |   C_median >= 0 : pinch_1 (5/0)
|   |   |   |   |   |   |   |   |   H_variance >= 11.95
|   |   |   |   |   |   |   |   |   |   A_median < 1.5 : pinch_1 (10/0)
|   |   |   |   |   |   |   |   |   |   A_median >= 1.5 : spread (2/0)
|   |   |   |   |   |   |   H_variance >= 74.14
|   |   |   |   |   |   |   |   A_variance < 6.31 : pinch_1 (1/0)
|   |   |   |   |   |   |   |   A_variance >= 6.31 : fist (5/0)
|   |   |   |   |   D_variance >= 809.13
|   |   |   |   |   |   H_variance < 47.63
|   |   |   |   |   |   |   E_median < -18 : pinch_1 (8/0)
|   |   |   |   |   |   |   E_median >= -18
|   |   |   |   |   |   |   |   C_variance < 112.27
|   |   |   |   |   |   |   |   |   B_variance < 4.39
|   |   |   |   |   |   |   |   |   |   F_mean < 2.1 : spread (12/0)
|   |   |   |   |   |   |   |   |   |   F_mean >= 2.1 : rest (1/0)
|   |   |   |   |   |   |   |   |   B_variance >= 4.39
|   |   |   |   |   |   |   |   |   |   B_mean < -2.05 : pinch_1 (10/0)
|   |   |   |   |   |   |   |   |   |   B_mean >= -2.05
|   |   |   |   |   |   |   |   |   |   |   B_median < -1.5
|   |   |   |   |   |   |   |   |   |   |   |   E_median < 1.5
|   |   |   |   |   |   |   |   |   |   |   |   |   H_mean < -0.65
|   |   |   |   |   |   |   |   |   |   |   |   |   |   G_variance < 16.13 : pinch_1 (3/0)
|   |   |   |   |   |   |   |   |   |   |   |   |   |   G_variance >= 16.13
|   |   |   |   |   |   |   |   |   |   |   |   |   |   |   B_variance < 4.7
|   |   |   |   |   |   |   |   |   |   |   |   |   |   |   |   A_mean < -1.2 : pinch_1 (1/0)
|   |   |   |   |   |   |   |   |   |   |   |   |   |   |   |   A_mean >= -1.2 : spread (1/0)
|   |   |   |   |   |   |   |   |   |   |   |   |   |   |   B_variance >= 4.7 : spread (15/0)
|   |   |   |   |   |   |   |   |   |   |   |   |   H_mean >= -0.65 : pinch_1 (2/0)
|   |   |   |   |   |   |   |   |   |   |   |   E_median >= 1.5 : spread (16/0)
|   |   |   |   |   |   |   |   |   |   |   B_median >= -1.5
|   |   |   |   |   |   |   |   |   |   |   |   B_variance < 12.67
|   |   |   |   |   |   |   |   |   |   |   |   |   A_variance < 2.37
|   |   |   |   |   |   |   |   |   |   |   |   |   |   D_variance < 979.15 : pinch_1 (1/0)
|   |   |   |   |   |   |   |   |   |   |   |   |   |   D_variance >= 979.15 : spread (5/0)
|   |   |   |   |   |   |   |   |   |   |   |   |   A_variance >= 2.37
|   |   |   |   |   |   |   |   |   |   |   |   |   |   C_mean < -0.55
|   |   |   |   |   |   |   |   |   |   |   |   |   |   |   A_variance < 4.43 : pinch_1 (7/0)
|   |   |   |   |   |   |   |   |   |   |   |   |   |   |   A_variance >= 4.43
|   |   |   |   |   |   |   |   |   |   |   |   |   |   |   |   B_variance < 6.93 : spread (5/0)
|   |   |   |   |   |   |   |   |   |   |   |   |   |   |   |   B_variance >= 6.93
|   |   |   |   |   |   |   |   |   |   |   |   |   |   |   |   |   A_mean < -1.55
|   |   |   |   |   |   |   |   |   |   |   |   |   |   |   |   |   |   H_variance < 12.11 : pinch_1 (1/0)
|   |   |   |   |   |   |   |   |   |   |   |   |   |   |   |   |   |   H_variance >= 12.11 : spread (3/0)
|   |   |   |   |   |   |   |   |   |   |   |   |   |   |   |   |   A_mean >= -1.55
|   |   |   |   |   |   |   |   |   |   |   |   |   |   |   |   |   |   E_variance < 346.91 : rest (1/0)
|   |   |   |   |   |   |   |   |   |   |   |   |   |   |   |   |   |   E_variance >= 346.91
|   |   |   |   |   |   |   |   |   |   |   |   |   |   |   |   |   |   |   C_median < 0.5 : pinch_1 (7/0)
|   |   |   |   |   |   |   |   |   |   |   |   |   |   |   |   |   |   |   C_median >= 0.5 : spread (1/0)
|   |   |   |   |   |   |   |   |   |   |   |   |   |   C_mean >= -0.55 : pinch_1 (7/0)
|   |   |   |   |   |   |   |   |   |   |   |   B_variance >= 12.67
|   |   |   |   |   |   |   |   |   |   |   |   |   B_mean < -1.4 : pinch_1 (4/0)
|   |   |   |   |   |   |   |   |   |   |   |   |   B_mean >= -1.4
|   |   |   |   |   |   |   |   |   |   |   |   |   |   D_variance < 1498.43
|   |   |   |   |   |   |   |   |   |   |   |   |   |   |   C_mean < -1.7 : spread (5/0)
|   |   |   |   |   |   |   |   |   |   |   |   |   |   |   C_mean >= -1.7
|   |   |   |   |   |   |   |   |   |   |   |   |   |   |   |   F_median < 1.5 : pinch_1 (3/0)
|   |   |   |   |   |   |   |   |   |   |   |   |   |   |   |   F_median >= 1.5 : spread (1/0)
|   |   |   |   |   |   |   |   |   |   |   |   |   |   D_variance >= 1498.43 : spread (15/0)
|   |   |   |   |   |   |   |   C_variance >= 112.27 : pinch_1 (6/0)
|   |   |   |   |   |   H_variance >= 47.63 : spread (8/0)
|   G_median >= 0.5
|   |   G_variance < 23
|   |   |   F_median < -1.5 : spread (2/0)
|   |   |   F_median >= -1.5
|   |   |   |   B_median < -0.5 : pinch_1 (17/0)
|   |   |   |   B_median >= -0.5
|   |   |   |   |   B_variance < 5.61
|   |   |   |   |   |   A_variance < 1.61 : pinch_1 (1/0)
|   |   |   |   |   |   A_variance >= 1.61 : pinch_3 (2/0)
|   |   |   |   |   B_variance >= 5.61 : pinch_1 (3/0)
|   |   G_variance >= 23
|   |   |   A_variance < 14.9
|   |   |   |   H_variance < 560.55
|   |   |   |   |   H_variance < 16.2
|   |   |   |   |   |   E_mean < 3.95
|   |   |   |   |   |   |   B_mean < -1.05
|   |   |   |   |   |   |   |   F_mean < -1.35 : spread (37/0)
|   |   |   |   |   |   |   |   F_mean >= -1.35
|   |   |   |   |   |   |   |   |   F_variance < 130.6
|   |   |   |   |   |   |   |   |   |   E_mean < -2.25 : pinch_1 (4/0)
|   |   |   |   |   |   |   |   |   |   E_mean >= -2.25
|   |   |   |   |   |   |   |   |   |   |   D_mean < -2.95
|   |   |   |   |   |   |   |   |   |   |   |   A_mean < -1.3 : spread (4/0)
|   |   |   |   |   |   |   |   |   |   |   |   A_mean >= -1.3 : pinch_1 (6/0)
|   |   |   |   |   |   |   |   |   |   |   D_mean >= -2.95
|   |   |   |   |   |   |   |   |   |   |   |   G_median < 2.5 : spread (13/0)
|   |   |   |   |   |   |   |   |   |   |   |   G_median >= 2.5
|   |   |   |   |   |   |   |   |   |   |   |   |   D_median < -0.5 : pinch_1 (1/0)
|   |   |   |   |   |   |   |   |   |   |   |   |   D_median >= -0.5 : spread (2/0)
|   |   |   |   |   |   |   |   |   F_variance >= 130.6 : pinch_1 (9/0)
|   |   |   |   |   |   |   B_mean >= -1.05
|   |   |   |   |   |   |   |   C_variance < 25.47
|   |   |   |   |   |   |   |   |   C_variance < 22.79 : spread (10/0)
|   |   |   |   |   |   |   |   |   C_variance >= 22.79 : pinch_1 (1/0)
|   |   |   |   |   |   |   |   C_variance >= 25.47 : spread (15/0)
|   |   |   |   |   |   E_mean >= 3.95 : spread (18/0)
|   |   |   |   |   H_variance >= 16.2 : spread (67/0)
|   |   |   |   H_variance >= 560.55 : fist (3/0)
|   |   |   A_variance >= 14.9
|   |   |   |   H_median < -6 : fist (11/0)
|   |   |   |   H_median >= -6
|   |   |   |   |   D_variance < 1003.96
|   |   |   |   |   |   H_variance < 386.52
|   |   |   |   |   |   |   E_mean < -2.65 : spread (6/0)
|   |   |   |   |   |   |   E_mean >= -2.65
|   |   |   |   |   |   |   |   F_mean < 0 : pinch_1 (5/0)
|   |   |   |   |   |   |   |   F_mean >= 0
|   |   |   |   |   |   |   |   |   A_mean < -1.3 : spread (5/0)
|   |   |   |   |   |   |   |   |   A_mean >= -1.3 : fist (2/0)
|   |   |   |   |   |   H_variance >= 386.52 : fist (16/0)
|   |   |   |   |   D_variance >= 1003.96
|   |   |   |   |   |   A_mean < -3.15 : pinch_1 (1/0)
|   |   |   |   |   |   A_mean >= -3.15
|   |   |   |   |   |   |   F_variance < 45.45
|   |   |   |   |   |   |   |   C_variance < 36.17 : spread (3/0)
|   |   |   |   |   |   |   |   C_variance >= 36.17 : pinch_1 (2/0)
|   |   |   |   |   |   |   F_variance >= 45.45 : spread (12/0)

Size of the tree : 521


RandomTree
==========

C_variance < 11.02
|   H_variance < 3.01
|   |   F_mean < -2.75
|   |   |   A_variance < 3.18
|   |   |   |   G_median < -1.5
|   |   |   |   |   B_mean < -1.35 : index (3/0)
|   |   |   |   |   B_mean >= -1.35 : pinch_1 (2/0)
|   |   |   |   G_median >= -1.5 : index (21/0)
|   |   |   A_variance >= 3.18
|   |   |   |   D_mean < -1.05
|   |   |   |   |   A_variance < 6.18 : fist (6/0)
|   |   |   |   |   A_variance >= 6.18
|   |   |   |   |   |   A_median < -1 : fist (1/0)
|   |   |   |   |   |   A_median >= -1 : index (1/0)
|   |   |   |   D_mean >= -1.05 : index (6/0)
|   |   F_mean >= -2.75
|   |   |   E_variance < 167.49
|   |   |   |   G_median < -0.5
|   |   |   |   |   E_variance < 17.8 : rest (42/0)
|   |   |   |   |   E_variance >= 17.8
|   |   |   |   |   |   H_variance < 1.35
|   |   |   |   |   |   |   E_variance < 93.94
|   |   |   |   |   |   |   |   G_variance < 1.99 : rest (4/0)
|   |   |   |   |   |   |   |   G_variance >= 1.99
|   |   |   |   |   |   |   |   |   D_mean < -3.05
|   |   |   |   |   |   |   |   |   |   A_median < -1.5 : pinch_3 (2/0)
|   |   |   |   |   |   |   |   |   |   A_median >= -1.5 : rest (1/0)
|   |   |   |   |   |   |   |   |   D_mean >= -3.05
|   |   |   |   |   |   |   |   |   |   F_variance < 8.63
|   |   |   |   |   |   |   |   |   |   |   A_variance < 1.05 : pinch_3 (2/0)
|   |   |   |   |   |   |   |   |   |   |   A_variance >= 1.05 : index (6/0)
|   |   |   |   |   |   |   |   |   |   F_variance >= 8.63 : index (20/0)
|   |   |   |   |   |   |   E_variance >= 93.94
|   |   |   |   |   |   |   |   F_mean < -1.25
|   |   |   |   |   |   |   |   |   F_variance < 7.63 : rest (1/0)
|   |   |   |   |   |   |   |   |   F_variance >= 7.63 : pinch_1 (5/0)
|   |   |   |   |   |   |   |   F_mean >= -1.25
|   |   |   |   |   |   |   |   |   G_variance < 2.2 : pinch_1 (1/0)
|   |   |   |   |   |   |   |   |   G_variance >= 2.2 : index (5/0)
|   |   |   |   |   |   H_variance >= 1.35
|   |   |   |   |   |   |   E_mean < -3.7
|   |   |   |   |   |   |   |   F_variance < 14.64
|   |   |   |   |   |   |   |   |   A_variance < 6.11 : rest (9/0)
|   |   |   |   |   |   |   |   |   A_variance >= 6.11 : pinch_1 (2/0)
|   |   |   |   |   |   |   |   F_variance >= 14.64 : pinch_1 (5/0)
|   |   |   |   |   |   |   E_mean >= -3.7
|   |   |   |   |   |   |   |   G_variance < 7.5
|   |   |   |   |   |   |   |   |   D_variance < 52.62
|   |   |   |   |   |   |   |   |   |   C_median < -1.5 : index (3/0)
|   |   |   |   |   |   |   |   |   |   C_median >= -1.5
|   |   |   |   |   |   |   |   |   |   |   B_mean < -0.95 : pinch_1 (3/0)
|   |   |   |   |   |   |   |   |   |   |   B_mean >= -0.95 : index (1/0)
|   |   |   |   |   |   |   |   |   D_variance >= 52.62
|   |   |   |   |   |   |   |   |   |   D_median < 5.5
|   |   |   |   |   |   |   |   |   |   |   H_median < -1.5
|   |   |   |   |   |   |   |   |   |   |   |   C_median < -1 : rest (1/0)
|   |   |   |   |   |   |   |   |   |   |   |   C_median >= -1 : pinch_1 (1/0)
|   |   |   |   |   |   |   |   |   |   |   H_median >= -1.5
|   |   |   |   |   |   |   |   |   |   |   |   F_mean < -0.65
|   |   |   |   |   |   |   |   |   |   |   |   |   H_mean < -0.95 : pinch_3 (12/0)
|   |   |   |   |   |   |   |   |   |   |   |   |   H_mean >= -0.95 : rest (1/0)
|   |   |   |   |   |   |   |   |   |   |   |   F_mean >= -0.65 : rest (2/0)
|   |   |   |   |   |   |   |   |   |   D_median >= 5.5 : rest (8/0)
|   |   |   |   |   |   |   |   G_variance >= 7.5
|   |   |   |   |   |   |   |   |   B_variance < 4.2
|   |   |   |   |   |   |   |   |   |   G_variance < 8 : fist (1/0)
|   |   |   |   |   |   |   |   |   |   G_variance >= 8
|   |   |   |   |   |   |   |   |   |   |   C_variance < 1.69 : rest (1/0)
|   |   |   |   |   |   |   |   |   |   |   C_variance >= 1.69 : index (15/0)
|   |   |   |   |   |   |   |   |   B_variance >= 4.2 : pinch_3 (2/0)
|   |   |   |   G_median >= -0.5
|   |   |   |   |   H_variance < 0.73 : rest (2/0)
|   |   |   |   |   H_variance >= 0.73
|   |   |   |   |   |   B_variance < 2.75
|   |   |   |   |   |   |   G_mean < -1.55
|   |   |   |   |   |   |   |   G_median < 0.5 : index (1/0)
|   |   |   |   |   |   |   |   G_median >= 0.5 : fist (2/0)
|   |   |   |   |   |   |   G_mean >= -1.55
|   |   |   |   |   |   |   |   H_mean < -1.35
|   |   |   |   |   |   |   |   |   A_mean < -0.65 : index (6/0)
|   |   |   |   |   |   |   |   |   A_mean >= -0.65 : fist (1/0)
|   |   |   |   |   |   |   |   H_mean >= -1.35 : index (23/0)
|   |   |   |   |   |   B_variance >= 2.75
|   |   |   |   |   |   |   A_variance < 2.7 : pinch_1 (5/0)
|   |   |   |   |   |   |   A_variance >= 2.7 : fist (2/0)
|   |   |   E_variance >= 167.49
|   |   |   |   G_mean < -0.75
|   |   |   |   |   F_mean < 0.3
|   |   |   |   |   |   D_median < 8
|   |   |   |   |   |   |   D_variance < 231.06
|   |   |   |   |   |   |   |   B_variance < 1.21
|   |   |   |   |   |   |   |   |   E_mean < -0.4 : pinch_1 (5/0)
|   |   |   |   |   |   |   |   |   E_mean >= -0.4 : index (2/0)
|   |   |   |   |   |   |   |   B_variance >= 1.21
|   |   |   |   |   |   |   |   |   H_variance < 2.13 : pinch_1 (41/0)
|   |   |   |   |   |   |   |   |   H_variance >= 2.13
|   |   |   |   |   |   |   |   |   |   B_mean < -1.75 : spread (1/0)
|   |   |   |   |   |   |   |   |   |   B_mean >= -1.75 : pinch_1 (10/0)
|   |   |   |   |   |   |   D_variance >= 231.06
|   |   |   |   |   |   |   |   C_variance < 9.57
|   |   |   |   |   |   |   |   |   C_variance < 7.72
|   |   |   |   |   |   |   |   |   |   B_mean < -1.35
|   |   |   |   |   |   |   |   |   |   |   C_variance < 4.11 : pinch_1 (5/0)
|   |   |   |   |   |   |   |   |   |   |   C_variance >= 4.11 : rest (2/0)
|   |   |   |   |   |   |   |   |   |   B_mean >= -1.35 : rest (2/0)
|   |   |   |   |   |   |   |   |   C_variance >= 7.72 : pinch_1 (11/0)
|   |   |   |   |   |   |   |   C_variance >= 9.57
|   |   |   |   |   |   |   |   |   C_variance < 10.91 : rest (4/0)
|   |   |   |   |   |   |   |   |   C_variance >= 10.91 : pinch_1 (1/0)
|   |   |   |   |   |   D_median >= 8 : rest (4/0)
|   |   |   |   |   F_mean >= 0.3 : index (6/0)
|   |   |   |   G_mean >= -0.75
|   |   |   |   |   B_median < -1.5 : spread (3/0)
|   |   |   |   |   B_median >= -1.5
|   |   |   |   |   |   F_variance < 72.13 : pinch_1 (2/0)
|   |   |   |   |   |   F_variance >= 72.13 : fist (3/0)
|   H_variance >= 3.01
|   |   D_variance < 52.22
|   |   |   F_variance < 77.36
|   |   |   |   D_mean < -0.85
|   |   |   |   |   F_median < -2.5 : pinch_1 (6/0)
|   |   |   |   |   F_median >= -2.5
|   |   |   |   |   |   C_variance < 3.55
|   |   |   |   |   |   |   D_variance < 15.23 : index (16/0)
|   |   |   |   |   |   |   D_variance >= 15.23
|   |   |   |   |   |   |   |   B_variance < 1.2 : index (2/0)
|   |   |   |   |   |   |   |   B_variance >= 1.2
|   |   |   |   |   |   |   |   |   D_mean < -1.6 : pinch_3 (3/0)
|   |   |   |   |   |   |   |   |   D_mean >= -1.6 : index (1/0)
|   |   |   |   |   |   C_variance >= 3.55
|   |   |   |   |   |   |   E_variance < 17.14 : rest (2/0)
|   |   |   |   |   |   |   E_variance >= 17.14 : index (21/0)
|   |   |   |   D_mean >= -0.85
|   |   |   |   |   C_mean < -1.2
|   |   |   |   |   |   E_variance < 222.98
|   |   |   |   |   |   |   E_variance < 30.19 : index (1/0)
|   |   |   |   |   |   |   E_variance >= 30.19
|   |   |   |   |   |   |   |   H_median < -1.5
|   |   |   |   |   |   |   |   |   B_mean < -1.55 : pinch_3 (2/0)
|   |   |   |   |   |   |   |   |   B_mean >= -1.55 : index (1/0)
|   |   |   |   |   |   |   |   H_median >= -1.5 : pinch_3 (9/0)
|   |   |   |   |   |   E_variance >= 222.98 : spread (3/0)
|   |   |   |   |   C_mean >= -1.2
|   |   |   |   |   |   F_mean < -0.85
|   |   |   |   |   |   |   G_mean < -0.35
|   |   |   |   |   |   |   |   F_median < -1.5 : index (2/0)
|   |   |   |   |   |   |   |   F_median >= -1.5
|   |   |   |   |   |   |   |   |   D_variance < 5.26 : index (1/0)
|   |   |   |   |   |   |   |   |   D_variance >= 5.26 : pinch_3 (5/0)
|   |   |   |   |   |   |   G_mean >= -0.35 : index (6/0)
|   |   |   |   |   |   F_mean >= -0.85 : index (7/0)
|   |   |   F_variance >= 77.36
|   |   |   |   G_median < -1.5
|   |   |   |   |   B_variance < 0.93 : index (1/0)
|   |   |   |   |   B_variance >= 0.93 : fist (18/0)
|   |   |   |   G_median >= -1.5
|   |   |   |   |   D_median < -1.5 : fist (6/0)
|   |   |   |   |   D_median >= -1.5
|   |   |   |   |   |   H_variance < 21.92
|   |   |   |   |   |   |   F_median < -3.5
|   |   |   |   |   |   |   |   A_median < -1 : index (1/0)
|   |   |   |   |   |   |   |   A_median >= -1 : spread (2/0)
|   |   |   |   |   |   |   F_median >= -3.5
|   |   |   |   |   |   |   |   A_mean < -1.05
|   |   |   |   |   |   |   |   |   G_variance < 101.09
|   |   |   |   |   |   |   |   |   |   B_median < -1.5 : index (1/0)
|   |   |   |   |   |   |   |   |   |   B_median >= -1.5 : fist (3/0)
|   |   |   |   |   |   |   |   |   G_variance >= 101.09 : index (5/0)
|   |   |   |   |   |   |   |   A_mean >= -1.05 : index (11/0)
|   |   |   |   |   |   H_variance >= 21.92 : fist (8/0)
|   |   D_variance >= 52.22
|   |   |   H_median < 0.5
|   |   |   |   F_variance < 13.75
|   |   |   |   |   H_variance < 59.65
|   |   |   |   |   |   E_mean < 0.05
|   |   |   |   |   |   |   A_variance < 3.61
|   |   |   |   |   |   |   |   E_median < -8 : pinch_1 (1/0)
|   |   |   |   |   |   |   |   E_median >= -8 : pinch_3 (18/0)
|   |   |   |   |   |   |   A_variance >= 3.61
|   |   |   |   |   |   |   |   A_mean < -1.65 : rest (1/0)
|   |   |   |   |   |   |   |   A_mean >= -1.65
|   |   |   |   |   |   |   |   |   D_median < -0.5 : spread (1/0)
|   |   |   |   |   |   |   |   |   D_median >= -0.5 : pinch_3 (1/0)
|   |   |   |   |   |   E_mean >= 0.05
|   |   |   |   |   |   |   D_variance < 274.38
|   |   |   |   |   |   |   |   D_variance < 114.77 : rest (1/0)
|   |   |   |   |   |   |   |   D_variance >= 114.77 : pinch_1 (8/0)
|   |   |   |   |   |   |   D_variance >= 274.38
|   |   |   |   |   |   |   |   B_mean < -1.15 : pinch_3 (4/0)
|   |   |   |   |   |   |   |   B_mean >= -1.15 : rest (2/0)
|   |   |   |   |   H_variance >= 59.65
|   |   |   |   |   |   A_variance < 1.61 : pinch_3 (5/0)
|   |   |   |   |   |   A_variance >= 1.61
|   |   |   |   |   |   |   B_mean < -1.35 : index (7/0)
|   |   |   |   |   |   |   B_mean >= -1.35
|   |   |   |   |   |   |   |   D_variance < 112.77
|   |   |   |   |   |   |   |   |   B_median < -1.5 : pinch_3 (1/0)
|   |   |   |   |   |   |   |   |   B_median >= -1.5 : index (7/0)
|   |   |   |   |   |   |   |   D_variance >= 112.77
|   |   |   |   |   |   |   |   |   E_mean < -1.9
|   |   |   |   |   |   |   |   |   |   A_mean < -1.2 : index (1/0)
|   |   |   |   |   |   |   |   |   |   A_mean >= -1.2 : pinch_3 (2/0)
|   |   |   |   |   |   |   |   |   E_mean >= -1.9 : pinch_3 (4/0)
|   |   |   |   F_variance >= 13.75
|   |   |   |   |   G_variance < 70.9
|   |   |   |   |   |   E_variance < 217.73
|   |   |   |   |   |   |   A_mean < -0.75
|   |   |   |   |   |   |   |   D_variance < 669.89
|   |   |   |   |   |   |   |   |   H_variance < 4.03 : pinch_1 (5/0)
|   |   |   |   |   |   |   |   |   H_variance >= 4.03
|   |   |   |   |   |   |   |   |   |   B_variance < 1.25
|   |   |   |   |   |   |   |   |   |   |   A_variance < 1.71 : pinch_3 (1/0)
|   |   |   |   |   |   |   |   |   |   |   A_variance >= 1.71 : pinch_1 (1/0)
|   |   |   |   |   |   |   |   |   |   B_variance >= 1.25 : pinch_3 (23/0)
|   |   |   |   |   |   |   |   D_variance >= 669.89 : spread (1/0)
|   |   |   |   |   |   |   A_mean >= -0.75 : spread (3/0)
|   |   |   |   |   |   E_variance >= 217.73
|   |   |   |   |   |   |   H_mean < -0.75
|   |   |   |   |   |   |   |   H_variance < 4.33
|   |   |   |   |   |   |   |   |   B_mean < -1.45 : spread (4/0)
|   |   |   |   |   |   |   |   |   B_mean >= -1.45 : pinch_1 (1/0)
|   |   |   |   |   |   |   |   H_variance >= 4.33
|   |   |   |   |   |   |   |   |   H_variance < 46.86 : pinch_1 (14/0)
|   |   |   |   |   |   |   |   |   H_variance >= 46.86 : rest (1/0)
